tree
version=v3
num_class=4
num_tree_per_iteration=4
label_index=0
max_feature_idx=4095
objective=multiclass num_class:4
feature_names=Column_0 Column_1 Column_2 Column_3 Column_4 Column_5 Column_6 Column_7 Column_8 Column_9 Column_10 Column_11 Column_12 Column_13 Column_14 Column_15 Column_16 Column_17 Column_18 Column_19 Column_20 Column_21 Column_22 Column_23 Column_24 Column_25 Column_26 Column_27 Column_28 Column_29 Column_30 Column_31 Column_32 Column_33 Column_34 Column_35 Column_36 Column_37 Column_38 Column_39 Column_40 Column_41 Column_42 Column_43 Column_44 Column_45 Column_46 Column_47 Column_48 Column_49 Column_50 Column_51 Column_52 Column_53 Column_54 Column_55 Column_56 Column_57 Column_58 Column_59 Column_60 Column_61 Column_62 Column_63 Column_64 Column_65 Column_66 Column_67 Column_68 Column_69 Column_70 Column_71 Column_72 Column_73 Column_74 Column_75 Column_76 Column_77 Column_78 Column_79 Column_80 Column_81 Column_82 Column_83 Column_84 Column_85 Column_86 Column_87 Column_88 Column_89 Column_90 Column_91 Column_92 Column_93 Column_94 Column_95 Column_96 Column_97 Column_98 Column_99 Column_100 Column_101 Column_102 Column_103 Column_104 Column_105 Column_106 Column_107 Column_108 Column_109 Column_110 Column_111 Column_112 Column_113 Column_114 Column_115 Column_116 Column_117 Column_118 Column_119 Column_120 Column_121 Column_122 Column_123 Column_124 Column_125 Column_126 Column_127 Column_128 Column_129 Column_130 Column_131 Column_132 Column_133 Column_134 Column_135 Column_136 Column_137 Column_138 Column_139 Column_140 Column_141 Column_142 Column_143 Column_144 Column_145 Column_146 Column_147 Column_148 Column_149 Column_150 Column_151 Column_152 Column_153 Column_154 Column_155 Column_156 Column_157 Column_158 Column_159 Column_160 Column_161 Column_162 Column_163 Column_164 Column_165 Column_166 Column_167 Column_168 Column_169 Column_170 Column_171 Column_172 Column_173 Column_174 Column_175 Column_176 Column_177 Column_178 Column_179 Column_180 Column_181 Column_182 Column_183 Column_184 Column_185 Column_186 Column_187 Column_188 Column_189 Column_190 Column_191 Column_192 Column_193 Column_194 Column_195 Column_196 Column_197 Column_198 Column_199 Column_200 Column_201 Column_202 Column_203 Column_204 Column_205 Column_206 Column_207 Column_208 Column_209 Column_210 Column_211 Column_212 Column_213 Column_214 Column_215 Column_216 Column_217 Column_218 Column_219 Column_220 Column_221 Column_222 Column_223 Column_224 Column_225 Column_226 Column_227 Column_228 Column_229 Column_230 Column_231 Column_232 Column_233 Column_234 Column_235 Column_236 Column_237 Column_238 Column_239 Column_240 Column_241 Column_242 Column_243 Column_244 Column_245 Column_246 Column_247 Column_248 Column_249 Column_250 Column_251 Column_252 Column_253 Column_254 Column_255 Column_256 Column_257 Column_258 Column_259 Column_260 Column_261 Column_262 Column_263 Column_264 Column_265 Column_266 Column_267 Column_268 Column_269 Column_270 Column_271 Column_272 Column_273 Column_274 Column_275 Column_276 Column_277 Column_278 Column_279 Column_280 Column_281 Column_282 Column_283 Column_284 Column_285 Column_286 Column_287 Column_288 Column_289 Column_290 Column_291 Column_292 Column_293 Column_294 Column_295 Column_296 Column_297 Column_298 Column_299 Column_300 Column_301 Column_302 Column_303 Column_304 Column_305 Column_306 Column_307 Column_308 Column_309 Column_310 Column_311 Column_312 Column_313 Column_314 Column_315 Column_316 Column_317 Column_318 Column_319 Column_320 Column_321 Column_322 Column_323 Column_324 Column_325 Column_326 Column_327 Column_328 Column_329 Column_330 Column_331 Column_332 Column_333 Column_334 Column_335 Column_336 Column_337 Column_338 Column_339 Column_340 Column_341 Column_342 Column_343 Column_344 Column_345 Column_346 Column_347 Column_348 Column_349 Column_350 Column_351 Column_352 Column_353 Column_354 Column_355 Column_356 Column_357 Column_358 Column_359 Column_360 Column_361 Column_362 Column_363 Column_364 Column_365 Column_366 Column_367 Column_368 Column_369 Column_370 Column_371 Column_372 Column_373 Column_374 Column_375 Column_376 Column_377 Column_378 Column_379 Column_380 Column_381 Column_382 Column_383 Column_384 Column_385 Column_386 Column_387 Column_388 Column_389 Column_390 Column_391 Column_392 Column_393 Column_394 Column_395 Column_396 Column_397 Column_398 Column_399 Column_400 Column_401 Column_402 Column_403 Column_404 Column_405 Column_406 Column_407 Column_408 Column_409 Column_410 Column_411 Column_412 Column_413 Column_414 Column_415 Column_416 Column_417 Column_418 Column_419 Column_420 Column_421 Column_422 Column_423 Column_424 Column_425 Column_426 Column_427 Column_428 Column_429 Column_430 Column_431 Column_432 Column_433 Column_434 Column_435 Column_436 Column_437 Column_438 Column_439 Column_440 Column_441 Column_442 Column_443 Column_444 Column_445 Column_446 Column_447 Column_448 Column_449 Column_450 Column_451 Column_452 Column_453 Column_454 Column_455 Column_456 Column_457 Column_458 Column_459 Column_460 Column_461 Column_462 Column_463 Column_464 Column_465 Column_466 Column_467 Column_468 Column_469 Column_470 Column_471 Column_472 Column_473 Column_474 Column_475 Column_476 Column_477 Column_478 Column_479 Column_480 Column_481 Column_482 Column_483 Column_484 Column_485 Column_486 Column_487 Column_488 Column_489 Column_490 Column_491 Column_492 Column_493 Column_494 Column_495 Column_496 Column_497 Column_498 Column_499 Column_500 Column_501 Column_502 Column_503 Column_504 Column_505 Column_506 Column_507 Column_508 Column_509 Column_510 Column_511 Column_512 Column_513 Column_514 Column_515 Column_516 Column_517 Column_518 Column_519 Column_520 Column_521 Column_522 Column_523 Column_524 Column_525 Column_526 Column_527 Column_528 Column_529 Column_530 Column_531 Column_532 Column_533 Column_534 Column_535 Column_536 Column_537 Column_538 Column_539 Column_540 Column_541 Column_542 Column_543 Column_544 Column_545 Column_546 Column_547 Column_548 Column_549 Column_550 Column_551 Column_552 Column_553 Column_554 Column_555 Column_556 Column_557 Column_558 Column_559 Column_560 Column_561 Column_562 Column_563 Column_564 Column_565 Column_566 Column_567 Column_568 Column_569 Column_570 Column_571 Column_572 Column_573 Column_574 Column_575 Column_576 Column_577 Column_578 Column_579 Column_580 Column_581 Column_582 Column_583 Column_584 Column_585 Column_586 Column_587 Column_588 Column_589 Column_590 Column_591 Column_592 Column_593 Column_594 Column_595 Column_596 Column_597 Column_598 Column_599 Column_600 Column_601 Column_602 Column_603 Column_604 Column_605 Column_606 Column_607 Column_608 Column_609 Column_610 Column_611 Column_612 Column_613 Column_614 Column_615 Column_616 Column_617 Column_618 Column_619 Column_620 Column_621 Column_622 Column_623 Column_624 Column_625 Column_626 Column_627 Column_628 Column_629 Column_630 Column_631 Column_632 Column_633 Column_634 Column_635 Column_636 Column_637 Column_638 Column_639 Column_640 Column_641 Column_642 Column_643 Column_644 Column_645 Column_646 Column_647 Column_648 Column_649 Column_650 Column_651 Column_652 Column_653 Column_654 Column_655 Column_656 Column_657 Column_658 Column_659 Column_660 Column_661 Column_662 Column_663 Column_664 Column_665 Column_666 Column_667 Column_668 Column_669 Column_670 Column_671 Column_672 Column_673 Column_674 Column_675 Column_676 Column_677 Column_678 Column_679 Column_680 Column_681 Column_682 Column_683 Column_684 Column_685 Column_686 Column_687 Column_688 Column_689 Column_690 Column_691 Column_692 Column_693 Column_694 Column_695 Column_696 Column_697 Column_698 Column_699 Column_700 Column_701 Column_702 Column_703 Column_704 Column_705 Column_706 Column_707 Column_708 Column_709 Column_710 Column_711 Column_712 Column_713 Column_714 Column_715 Column_716 Column_717 Column_718 Column_719 Column_720 Column_721 Column_722 Column_723 Column_724 Column_725 Column_726 Column_727 Column_728 Column_729 Column_730 Column_731 Column_732 Column_733 Column_734 Column_735 Column_736 Column_737 Column_738 Column_739 Column_740 Column_741 Column_742 Column_743 Column_744 Column_745 Column_746 Column_747 Column_748 Column_749 Column_750 Column_751 Column_752 Column_753 Column_754 Column_755 Column_756 Column_757 Column_758 Column_759 Column_760 Column_761 Column_762 Column_763 Column_764 Column_765 Column_766 Column_767 Column_768 Column_769 Column_770 Column_771 Column_772 Column_773 Column_774 Column_775 Column_776 Column_777 Column_778 Column_779 Column_780 Column_781 Column_782 Column_783 Column_784 Column_785 Column_786 Column_787 Column_788 Column_789 Column_790 Column_791 Column_792 Column_793 Column_794 Column_795 Column_796 Column_797 Column_798 Column_799 Column_800 Column_801 Column_802 Column_803 Column_804 Column_805 Column_806 Column_807 Column_808 Column_809 Column_810 Column_811 Column_812 Column_813 Column_814 Column_815 Column_816 Column_817 Column_818 Column_819 Column_820 Column_821 Column_822 Column_823 Column_824 Column_825 Column_826 Column_827 Column_828 Column_829 Column_830 Column_831 Column_832 Column_833 Column_834 Column_835 Column_836 Column_837 Column_838 Column_839 Column_840 Column_841 Column_842 Column_843 Column_844 Column_845 Column_846 Column_847 Column_848 Column_849 Column_850 Column_851 Column_852 Column_853 Column_854 Column_855 Column_856 Column_857 Column_858 Column_859 Column_860 Column_861 Column_862 Column_863 Column_864 Column_865 Column_866 Column_867 Column_868 Column_869 Column_870 Column_871 Column_872 Column_873 Column_874 Column_875 Column_876 Column_877 Column_878 Column_879 Column_880 Column_881 Column_882 Column_883 Column_884 Column_885 Column_886 Column_887 Column_888 Column_889 Column_890 Column_891 Column_892 Column_893 Column_894 Column_895 Column_896 Column_897 Column_898 Column_899 Column_900 Column_901 Column_902 Column_903 Column_904 Column_905 Column_906 Column_907 Column_908 Column_909 Column_910 Column_911 Column_912 Column_913 Column_914 Column_915 Column_916 Column_917 Column_918 Column_919 Column_920 Column_921 Column_922 Column_923 Column_924 Column_925 Column_926 Column_927 Column_928 Column_929 Column_930 Column_931 Column_932 Column_933 Column_934 Column_935 Column_936 Column_937 Column_938 Column_939 Column_940 Column_941 Column_942 Column_943 Column_944 Column_945 Column_946 Column_947 Column_948 Column_949 Column_950 Column_951 Column_952 Column_953 Column_954 Column_955 Column_956 Column_957 Column_958 Column_959 Column_960 Column_961 Column_962 Column_963 Column_964 Column_965 Column_966 Column_967 Column_968 Column_969 Column_970 Column_971 Column_972 Column_973 Column_974 Column_975 Column_976 Column_977 Column_978 Column_979 Column_980 Column_981 Column_982 Column_983 Column_984 Column_985 Column_986 Column_987 Column_988 Column_989 Column_990 Column_991 Column_992 Column_993 Column_994 Column_995 Column_996 Column_997 Column_998 Column_999 Column_1000 Column_1001 Column_1002 Column_1003 Column_1004 Column_1005 Column_1006 Column_1007 Column_1008 Column_1009 Column_1010 Column_1011 Column_1012 Column_1013 Column_1014 Column_1015 Column_1016 Column_1017 Column_1018 Column_1019 Column_1020 Column_1021 Column_1022 Column_1023 Column_1024 Column_1025 Column_1026 Column_1027 Column_1028 Column_1029 Column_1030 Column_1031 Column_1032 Column_1033 Column_1034 Column_1035 Column_1036 Column_1037 Column_1038 Column_1039 Column_1040 Column_1041 Column_1042 Column_1043 Column_1044 Column_1045 Column_1046 Column_1047 Column_1048 Column_1049 Column_1050 Column_1051 Column_1052 Column_1053 Column_1054 Column_1055 Column_1056 Column_1057 Column_1058 Column_1059 Column_1060 Column_1061 Column_1062 Column_1063 Column_1064 Column_1065 Column_1066 Column_1067 Column_1068 Column_1069 Column_1070 Column_1071 Column_1072 Column_1073 Column_1074 Column_1075 Column_1076 Column_1077 Column_1078 Column_1079 Column_1080 Column_1081 Column_1082 Column_1083 Column_1084 Column_1085 Column_1086 Column_1087 Column_1088 Column_1089 Column_1090 Column_1091 Column_1092 Column_1093 Column_1094 Column_1095 Column_1096 Column_1097 Column_1098 Column_1099 Column_1100 Column_1101 Column_1102 Column_1103 Column_1104 Column_1105 Column_1106 Column_1107 Column_1108 Column_1109 Column_1110 Column_1111 Column_1112 Column_1113 Column_1114 Column_1115 Column_1116 Column_1117 Column_1118 Column_1119 Column_1120 Column_1121 Column_1122 Column_1123 Column_1124 Column_1125 Column_1126 Column_1127 Column_1128 Column_1129 Column_1130 Column_1131 Column_1132 Column_1133 Column_1134 Column_1135 Column_1136 Column_1137 Column_1138 Column_1139 Column_1140 Column_1141 Column_1142 Column_1143 Column_1144 Column_1145 Column_1146 Column_1147 Column_1148 Column_1149 Column_1150 Column_1151 Column_1152 Column_1153 Column_1154 Column_1155 Column_1156 Column_1157 Column_1158 Column_1159 Column_1160 Column_1161 Column_1162 Column_1163 Column_1164 Column_1165 Column_1166 Column_1167 Column_1168 Column_1169 Column_1170 Column_1171 Column_1172 Column_1173 Column_1174 Column_1175 Column_1176 Column_1177 Column_1178 Column_1179 Column_1180 Column_1181 Column_1182 Column_1183 Column_1184 Column_1185 Column_1186 Column_1187 Column_1188 Column_1189 Column_1190 Column_1191 Column_1192 Column_1193 Column_1194 Column_1195 Column_1196 Column_1197 Column_1198 Column_1199 Column_1200 Column_1201 Column_1202 Column_1203 Column_1204 Column_1205 Column_1206 Column_1207 Column_1208 Column_1209 Column_1210 Column_1211 Column_1212 Column_1213 Column_1214 Column_1215 Column_1216 Column_1217 Column_1218 Column_1219 Column_1220 Column_1221 Column_1222 Column_1223 Column_1224 Column_1225 Column_1226 Column_1227 Column_1228 Column_1229 Column_1230 Column_1231 Column_1232 Column_1233 Column_1234 Column_1235 Column_1236 Column_1237 Column_1238 Column_1239 Column_1240 Column_1241 Column_1242 Column_1243 Column_1244 Column_1245 Column_1246 Column_1247 Column_1248 Column_1249 Column_1250 Column_1251 Column_1252 Column_1253 Column_1254 Column_1255 Column_1256 Column_1257 Column_1258 Column_1259 Column_1260 Column_1261 Column_1262 Column_1263 Column_1264 Column_1265 Column_1266 Column_1267 Column_1268 Column_1269 Column_1270 Column_1271 Column_1272 Column_1273 Column_1274 Column_1275 Column_1276 Column_1277 Column_1278 Column_1279 Column_1280 Column_1281 Column_1282 Column_1283 Column_1284 Column_1285 Column_1286 Column_1287 Column_1288 Column_1289 Column_1290 Column_1291 Column_1292 Column_1293 Column_1294 Column_1295 Column_1296 Column_1297 Column_1298 Column_1299 Column_1300 Column_1301 Column_1302 Column_1303 Column_1304 Column_1305 Column_1306 Column_1307 Column_1308 Column_1309 Column_1310 Column_1311 Column_1312 Column_1313 Column_1314 Column_1315 Column_1316 Column_1317 Column_1318 Column_1319 Column_1320 Column_1321 Column_1322 Column_1323 Column_1324 Column_1325 Column_1326 Column_1327 Column_1328 Column_1329 Column_1330 Column_1331 Column_1332 Column_1333 Column_1334 Column_1335 Column_1336 Column_1337 Column_1338 Column_1339 Column_1340 Column_1341 Column_1342 Column_1343 Column_1344 Column_1345 Column_1346 Column_1347 Column_1348 Column_1349 Column_1350 Column_1351 Column_1352 Column_1353 Column_1354 Column_1355 Column_1356 Column_1357 Column_1358 Column_1359 Column_1360 Column_1361 Column_1362 Column_1363 Column_1364 Column_1365 Column_1366 Column_1367 Column_1368 Column_1369 Column_1370 Column_1371 Column_1372 Column_1373 Column_1374 Column_1375 Column_1376 Column_1377 Column_1378 Column_1379 Column_1380 Column_1381 Column_1382 Column_1383 Column_1384 Column_1385 Column_1386 Column_1387 Column_1388 Column_1389 Column_1390 Column_1391 Column_1392 Column_1393 Column_1394 Column_1395 Column_1396 Column_1397 Column_1398 Column_1399 Column_1400 Column_1401 Column_1402 Column_1403 Column_1404 Column_1405 Column_1406 Column_1407 Column_1408 Column_1409 Column_1410 Column_1411 Column_1412 Column_1413 Column_1414 Column_1415 Column_1416 Column_1417 Column_1418 Column_1419 Column_1420 Column_1421 Column_1422 Column_1423 Column_1424 Column_1425 Column_1426 Column_1427 Column_1428 Column_1429 Column_1430 Column_1431 Column_1432 Column_1433 Column_1434 Column_1435 Column_1436 Column_1437 Column_1438 Column_1439 Column_1440 Column_1441 Column_1442 Column_1443 Column_1444 Column_1445 Column_1446 Column_1447 Column_1448 Column_1449 Column_1450 Column_1451 Column_1452 Column_1453 Column_1454 Column_1455 Column_1456 Column_1457 Column_1458 Column_1459 Column_1460 Column_1461 Column_1462 Column_1463 Column_1464 Column_1465 Column_1466 Column_1467 Column_1468 Column_1469 Column_1470 Column_1471 Column_1472 Column_1473 Column_1474 Column_1475 Column_1476 Column_1477 Column_1478 Column_1479 Column_1480 Column_1481 Column_1482 Column_1483 Column_1484 Column_1485 Column_1486 Column_1487 Column_1488 Column_1489 Column_1490 Column_1491 Column_1492 Column_1493 Column_1494 Column_1495 Column_1496 Column_1497 Column_1498 Column_1499 Column_1500 Column_1501 Column_1502 Column_1503 Column_1504 Column_1505 Column_1506 Column_1507 Column_1508 Column_1509 Column_1510 Column_1511 Column_1512 Column_1513 Column_1514 Column_1515 Column_1516 Column_1517 Column_1518 Column_1519 Column_1520 Column_1521 Column_1522 Column_1523 Column_1524 Column_1525 Column_1526 Column_1527 Column_1528 Column_1529 Column_1530 Column_1531 Column_1532 Column_1533 Column_1534 Column_1535 Column_1536 Column_1537 Column_1538 Column_1539 Column_1540 Column_1541 Column_1542 Column_1543 Column_1544 Column_1545 Column_1546 Column_1547 Column_1548 Column_1549 Column_1550 Column_1551 Column_1552 Column_1553 Column_1554 Column_1555 Column_1556 Column_1557 Column_1558 Column_1559 Column_1560 Column_1561 Column_1562 Column_1563 Column_1564 Column_1565 Column_1566 Column_1567 Column_1568 Column_1569 Column_1570 Column_1571 Column_1572 Column_1573 Column_1574 Column_1575 Column_1576 Column_1577 Column_1578 Column_1579 Column_1580 Column_1581 Column_1582 Column_1583 Column_1584 Column_1585 Column_1586 Column_1587 Column_1588 Column_1589 Column_1590 Column_1591 Column_1592 Column_1593 Column_1594 Column_1595 Column_1596 Column_1597 Column_1598 Column_1599 Column_1600 Column_1601 Column_1602 Column_1603 Column_1604 Column_1605 Column_1606 Column_1607 Column_1608 Column_1609 Column_1610 Column_1611 Column_1612 Column_1613 Column_1614 Column_1615 Column_1616 Column_1617 Column_1618 Column_1619 Column_1620 Column_1621 Column_1622 Column_1623 Column_1624 Column_1625 Column_1626 Column_1627 Column_1628 Column_1629 Column_1630 Column_1631 Column_1632 Column_1633 Column_1634 Column_1635 Column_1636 Column_1637 Column_1638 Column_1639 Column_1640 Column_1641 Column_1642 Column_1643 Column_1644 Column_1645 Column_1646 Column_1647 Column_1648 Column_1649 Column_1650 Column_1651 Column_1652 Column_1653 Column_1654 Column_1655 Column_1656 Column_1657 Column_1658 Column_1659 Column_1660 Column_1661 Column_1662 Column_1663 Column_1664 Column_1665 Column_1666 Column_1667 Column_1668 Column_1669 Column_1670 Column_1671 Column_1672 Column_1673 Column_1674 Column_1675 Column_1676 Column_1677 Column_1678 Column_1679 Column_1680 Column_1681 Column_1682 Column_1683 Column_1684 Column_1685 Column_1686 Column_1687 Column_1688 Column_1689 Column_1690 Column_1691 Column_1692 Column_1693 Column_1694 Column_1695 Column_1696 Column_1697 Column_1698 Column_1699 Column_1700 Column_1701 Column_1702 Column_1703 Column_1704 Column_1705 Column_1706 Column_1707 Column_1708 Column_1709 Column_1710 Column_1711 Column_1712 Column_1713 Column_1714 Column_1715 Column_1716 Column_1717 Column_1718 Column_1719 Column_1720 Column_1721 Column_1722 Column_1723 Column_1724 Column_1725 Column_1726 Column_1727 Column_1728 Column_1729 Column_1730 Column_1731 Column_1732 Column_1733 Column_1734 Column_1735 Column_1736 Column_1737 Column_1738 Column_1739 Column_1740 Column_1741 Column_1742 Column_1743 Column_1744 Column_1745 Column_1746 Column_1747 Column_1748 Column_1749 Column_1750 Column_1751 Column_1752 Column_1753 Column_1754 Column_1755 Column_1756 Column_1757 Column_1758 Column_1759 Column_1760 Column_1761 Column_1762 Column_1763 Column_1764 Column_1765 Column_1766 Column_1767 Column_1768 Column_1769 Column_1770 Column_1771 Column_1772 Column_1773 Column_1774 Column_1775 Column_1776 Column_1777 Column_1778 Column_1779 Column_1780 Column_1781 Column_1782 Column_1783 Column_1784 Column_1785 Column_1786 Column_1787 Column_1788 Column_1789 Column_1790 Column_1791 Column_1792 Column_1793 Column_1794 Column_1795 Column_1796 Column_1797 Column_1798 Column_1799 Column_1800 Column_1801 Column_1802 Column_1803 Column_1804 Column_1805 Column_1806 Column_1807 Column_1808 Column_1809 Column_1810 Column_1811 Column_1812 Column_1813 Column_1814 Column_1815 Column_1816 Column_1817 Column_1818 Column_1819 Column_1820 Column_1821 Column_1822 Column_1823 Column_1824 Column_1825 Column_1826 Column_1827 Column_1828 Column_1829 Column_1830 Column_1831 Column_1832 Column_1833 Column_1834 Column_1835 Column_1836 Column_1837 Column_1838 Column_1839 Column_1840 Column_1841 Column_1842 Column_1843 Column_1844 Column_1845 Column_1846 Column_1847 Column_1848 Column_1849 Column_1850 Column_1851 Column_1852 Column_1853 Column_1854 Column_1855 Column_1856 Column_1857 Column_1858 Column_1859 Column_1860 Column_1861 Column_1862 Column_1863 Column_1864 Column_1865 Column_1866 Column_1867 Column_1868 Column_1869 Column_1870 Column_1871 Column_1872 Column_1873 Column_1874 Column_1875 Column_1876 Column_1877 Column_1878 Column_1879 Column_1880 Column_1881 Column_1882 Column_1883 Column_1884 Column_1885 Column_1886 Column_1887 Column_1888 Column_1889 Column_1890 Column_1891 Column_1892 Column_1893 Column_1894 Column_1895 Column_1896 Column_1897 Column_1898 Column_1899 Column_1900 Column_1901 Column_1902 Column_1903 Column_1904 Column_1905 Column_1906 Column_1907 Column_1908 Column_1909 Column_1910 Column_1911 Column_1912 Column_1913 Column_1914 Column_1915 Column_1916 Column_1917 Column_1918 Column_1919 Column_1920 Column_1921 Column_1922 Column_1923 Column_1924 Column_1925 Column_1926 Column_1927 Column_1928 Column_1929 Column_1930 Column_1931 Column_1932 Column_1933 Column_1934 Column_1935 Column_1936 Column_1937 Column_1938 Column_1939 Column_1940 Column_1941 Column_1942 Column_1943 Column_1944 Column_1945 Column_1946 Column_1947 Column_1948 Column_1949 Column_1950 Column_1951 Column_1952 Column_1953 Column_1954 Column_1955 Column_1956 Column_1957 Column_1958 Column_1959 Column_1960 Column_1961 Column_1962 Column_1963 Column_1964 Column_1965 Column_1966 Column_1967 Column_1968 Column_1969 Column_1970 Column_1971 Column_1972 Column_1973 Column_1974 Column_1975 Column_1976 Column_1977 Column_1978 Column_1979 Column_1980 Column_1981 Column_1982 Column_1983 Column_1984 Column_1985 Column_1986 Column_1987 Column_1988 Column_1989 Column_1990 Column_1991 Column_1992 Column_1993 Column_1994 Column_1995 Column_1996 Column_1997 Column_1998 Column_1999 Column_2000 Column_2001 Column_2002 Column_2003 Column_2004 Column_2005 Column_2006 Column_2007 Column_2008 Column_2009 Column_2010 Column_2011 Column_2012 Column_2013 Column_2014 Column_2015 Column_2016 Column_2017 Column_2018 Column_2019 Column_2020 Column_2021 Column_2022 Column_2023 Column_2024 Column_2025 Column_2026 Column_2027 Column_2028 Column_2029 Column_2030 Column_2031 Column_2032 Column_2033 Column_2034 Column_2035 Column_2036 Column_2037 Column_2038 Column_2039 Column_2040 Column_2041 Column_2042 Column_2043 Column_2044 Column_2045 Column_2046 Column_2047 Column_2048 Column_2049 Column_2050 Column_2051 Column_2052 Column_2053 Column_2054 Column_2055 Column_2056 Column_2057 Column_2058 Column_2059 Column_2060 Column_2061 Column_2062 Column_2063 Column_2064 Column_2065 Column_2066 Column_2067 Column_2068 Column_2069 Column_2070 Column_2071 Column_2072 Column_2073 Column_2074 Column_2075 Column_2076 Column_2077 Column_2078 Column_2079 Column_2080 Column_2081 Column_2082 Column_2083 Column_2084 Column_2085 Column_2086 Column_2087 Column_2088 Column_2089 Column_2090 Column_2091 Column_2092 Column_2093 Column_2094 Column_2095 Column_2096 Column_2097 Column_2098 Column_2099 Column_2100 Column_2101 Column_2102 Column_2103 Column_2104 Column_2105 Column_2106 Column_2107 Column_2108 Column_2109 Column_2110 Column_2111 Column_2112 Column_2113 Column_2114 Column_2115 Column_2116 Column_2117 Column_2118 Column_2119 Column_2120 Column_2121 Column_2122 Column_2123 Column_2124 Column_2125 Column_2126 Column_2127 Column_2128 Column_2129 Column_2130 Column_2131 Column_2132 Column_2133 Column_2134 Column_2135 Column_2136 Column_2137 Column_2138 Column_2139 Column_2140 Column_2141 Column_2142 Column_2143 Column_2144 Column_2145 Column_2146 Column_2147 Column_2148 Column_2149 Column_2150 Column_2151 Column_2152 Column_2153 Column_2154 Column_2155 Column_2156 Column_2157 Column_2158 Column_2159 Column_2160 Column_2161 Column_2162 Column_2163 Column_2164 Column_2165 Column_2166 Column_2167 Column_2168 Column_2169 Column_2170 Column_2171 Column_2172 Column_2173 Column_2174 Column_2175 Column_2176 Column_2177 Column_2178 Column_2179 Column_2180 Column_2181 Column_2182 Column_2183 Column_2184 Column_2185 Column_2186 Column_2187 Column_2188 Column_2189 Column_2190 Column_2191 Column_2192 Column_2193 Column_2194 Column_2195 Column_2196 Column_2197 Column_2198 Column_2199 Column_2200 Column_2201 Column_2202 Column_2203 Column_2204 Column_2205 Column_2206 Column_2207 Column_2208 Column_2209 Column_2210 Column_2211 Column_2212 Column_2213 Column_2214 Column_2215 Column_2216 Column_2217 Column_2218 Column_2219 Column_2220 Column_2221 Column_2222 Column_2223 Column_2224 Column_2225 Column_2226 Column_2227 Column_2228 Column_2229 Column_2230 Column_2231 Column_2232 Column_2233 Column_2234 Column_2235 Column_2236 Column_2237 Column_2238 Column_2239 Column_2240 Column_2241 Column_2242 Column_2243 Column_2244 Column_2245 Column_2246 Column_2247 Column_2248 Column_2249 Column_2250 Column_2251 Column_2252 Column_2253 Column_2254 Column_2255 Column_2256 Column_2257 Column_2258 Column_2259 Column_2260 Column_2261 Column_2262 Column_2263 Column_2264 Column_2265 Column_2266 Column_2267 Column_2268 Column_2269 Column_2270 Column_2271 Column_2272 Column_2273 Column_2274 Column_2275 Column_2276 Column_2277 Column_2278 Column_2279 Column_2280 Column_2281 Column_2282 Column_2283 Column_2284 Column_2285 Column_2286 Column_2287 Column_2288 Column_2289 Column_2290 Column_2291 Column_2292 Column_2293 Column_2294 Column_2295 Column_2296 Column_2297 Column_2298 Column_2299 Column_2300 Column_2301 Column_2302 Column_2303 Column_2304 Column_2305 Column_2306 Column_2307 Column_2308 Column_2309 Column_2310 Column_2311 Column_2312 Column_2313 Column_2314 Column_2315 Column_2316 Column_2317 Column_2318 Column_2319 Column_2320 Column_2321 Column_2322 Column_2323 Column_2324 Column_2325 Column_2326 Column_2327 Column_2328 Column_2329 Column_2330 Column_2331 Column_2332 Column_2333 Column_2334 Column_2335 Column_2336 Column_2337 Column_2338 Column_2339 Column_2340 Column_2341 Column_2342 Column_2343 Column_2344 Column_2345 Column_2346 Column_2347 Column_2348 Column_2349 Column_2350 Column_2351 Column_2352 Column_2353 Column_2354 Column_2355 Column_2356 Column_2357 Column_2358 Column_2359 Column_2360 Column_2361 Column_2362 Column_2363 Column_2364 Column_2365 Column_2366 Column_2367 Column_2368 Column_2369 Column_2370 Column_2371 Column_2372 Column_2373 Column_2374 Column_2375 Column_2376 Column_2377 Column_2378 Column_2379 Column_2380 Column_2381 Column_2382 Column_2383 Column_2384 Column_2385 Column_2386 Column_2387 Column_2388 Column_2389 Column_2390 Column_2391 Column_2392 Column_2393 Column_2394 Column_2395 Column_2396 Column_2397 Column_2398 Column_2399 Column_2400 Column_2401 Column_2402 Column_2403 Column_2404 Column_2405 Column_2406 Column_2407 Column_2408 Column_2409 Column_2410 Column_2411 Column_2412 Column_2413 Column_2414 Column_2415 Column_2416 Column_2417 Column_2418 Column_2419 Column_2420 Column_2421 Column_2422 Column_2423 Column_2424 Column_2425 Column_2426 Column_2427 Column_2428 Column_2429 Column_2430 Column_2431 Column_2432 Column_2433 Column_2434 Column_2435 Column_2436 Column_2437 Column_2438 Column_2439 Column_2440 Column_2441 Column_2442 Column_2443 Column_2444 Column_2445 Column_2446 Column_2447 Column_2448 Column_2449 Column_2450 Column_2451 Column_2452 Column_2453 Column_2454 Column_2455 Column_2456 Column_2457 Column_2458 Column_2459 Column_2460 Column_2461 Column_2462 Column_2463 Column_2464 Column_2465 Column_2466 Column_2467 Column_2468 Column_2469 Column_2470 Column_2471 Column_2472 Column_2473 Column_2474 Column_2475 Column_2476 Column_2477 Column_2478 Column_2479 Column_2480 Column_2481 Column_2482 Column_2483 Column_2484 Column_2485 Column_2486 Column_2487 Column_2488 Column_2489 Column_2490 Column_2491 Column_2492 Column_2493 Column_2494 Column_2495 Column_2496 Column_2497 Column_2498 Column_2499 Column_2500 Column_2501 Column_2502 Column_2503 Column_2504 Column_2505 Column_2506 Column_2507 Column_2508 Column_2509 Column_2510 Column_2511 Column_2512 Column_2513 Column_2514 Column_2515 Column_2516 Column_2517 Column_2518 Column_2519 Column_2520 Column_2521 Column_2522 Column_2523 Column_2524 Column_2525 Column_2526 Column_2527 Column_2528 Column_2529 Column_2530 Column_2531 Column_2532 Column_2533 Column_2534 Column_2535 Column_2536 Column_2537 Column_2538 Column_2539 Column_2540 Column_2541 Column_2542 Column_2543 Column_2544 Column_2545 Column_2546 Column_2547 Column_2548 Column_2549 Column_2550 Column_2551 Column_2552 Column_2553 Column_2554 Column_2555 Column_2556 Column_2557 Column_2558 Column_2559 Column_2560 Column_2561 Column_2562 Column_2563 Column_2564 Column_2565 Column_2566 Column_2567 Column_2568 Column_2569 Column_2570 Column_2571 Column_2572 Column_2573 Column_2574 Column_2575 Column_2576 Column_2577 Column_2578 Column_2579 Column_2580 Column_2581 Column_2582 Column_2583 Column_2584 Column_2585 Column_2586 Column_2587 Column_2588 Column_2589 Column_2590 Column_2591 Column_2592 Column_2593 Column_2594 Column_2595 Column_2596 Column_2597 Column_2598 Column_2599 Column_2600 Column_2601 Column_2602 Column_2603 Column_2604 Column_2605 Column_2606 Column_2607 Column_2608 Column_2609 Column_2610 Column_2611 Column_2612 Column_2613 Column_2614 Column_2615 Column_2616 Column_2617 Column_2618 Column_2619 Column_2620 Column_2621 Column_2622 Column_2623 Column_2624 Column_2625 Column_2626 Column_2627 Column_2628 Column_2629 Column_2630 Column_2631 Column_2632 Column_2633 Column_2634 Column_2635 Column_2636 Column_2637 Column_2638 Column_2639 Column_2640 Column_2641 Column_2642 Column_2643 Column_2644 Column_2645 Column_2646 Column_2647 Column_2648 Column_2649 Column_2650 Column_2651 Column_2652 Column_2653 Column_2654 Column_2655 Column_2656 Column_2657 Column_2658 Column_2659 Column_2660 Column_2661 Column_2662 Column_2663 Column_2664 Column_2665 Column_2666 Column_2667 Column_2668 Column_2669 Column_2670 Column_2671 Column_2672 Column_2673 Column_2674 Column_2675 Column_2676 Column_2677 Column_2678 Column_2679 Column_2680 Column_2681 Column_2682 Column_2683 Column_2684 Column_2685 Column_2686 Column_2687 Column_2688 Column_2689 Column_2690 Column_2691 Column_2692 Column_2693 Column_2694 Column_2695 Column_2696 Column_2697 Column_2698 Column_2699 Column_2700 Column_2701 Column_2702 Column_2703 Column_2704 Column_2705 Column_2706 Column_2707 Column_2708 Column_2709 Column_2710 Column_2711 Column_2712 Column_2713 Column_2714 Column_2715 Column_2716 Column_2717 Column_2718 Column_2719 Column_2720 Column_2721 Column_2722 Column_2723 Column_2724 Column_2725 Column_2726 Column_2727 Column_2728 Column_2729 Column_2730 Column_2731 Column_2732 Column_2733 Column_2734 Column_2735 Column_2736 Column_2737 Column_2738 Column_2739 Column_2740 Column_2741 Column_2742 Column_2743 Column_2744 Column_2745 Column_2746 Column_2747 Column_2748 Column_2749 Column_2750 Column_2751 Column_2752 Column_2753 Column_2754 Column_2755 Column_2756 Column_2757 Column_2758 Column_2759 Column_2760 Column_2761 Column_2762 Column_2763 Column_2764 Column_2765 Column_2766 Column_2767 Column_2768 Column_2769 Column_2770 Column_2771 Column_2772 Column_2773 Column_2774 Column_2775 Column_2776 Column_2777 Column_2778 Column_2779 Column_2780 Column_2781 Column_2782 Column_2783 Column_2784 Column_2785 Column_2786 Column_2787 Column_2788 Column_2789 Column_2790 Column_2791 Column_2792 Column_2793 Column_2794 Column_2795 Column_2796 Column_2797 Column_2798 Column_2799 Column_2800 Column_2801 Column_2802 Column_2803 Column_2804 Column_2805 Column_2806 Column_2807 Column_2808 Column_2809 Column_2810 Column_2811 Column_2812 Column_2813 Column_2814 Column_2815 Column_2816 Column_2817 Column_2818 Column_2819 Column_2820 Column_2821 Column_2822 Column_2823 Column_2824 Column_2825 Column_2826 Column_2827 Column_2828 Column_2829 Column_2830 Column_2831 Column_2832 Column_2833 Column_2834 Column_2835 Column_2836 Column_2837 Column_2838 Column_2839 Column_2840 Column_2841 Column_2842 Column_2843 Column_2844 Column_2845 Column_2846 Column_2847 Column_2848 Column_2849 Column_2850 Column_2851 Column_2852 Column_2853 Column_2854 Column_2855 Column_2856 Column_2857 Column_2858 Column_2859 Column_2860 Column_2861 Column_2862 Column_2863 Column_2864 Column_2865 Column_2866 Column_2867 Column_2868 Column_2869 Column_2870 Column_2871 Column_2872 Column_2873 Column_2874 Column_2875 Column_2876 Column_2877 Column_2878 Column_2879 Column_2880 Column_2881 Column_2882 Column_2883 Column_2884 Column_2885 Column_2886 Column_2887 Column_2888 Column_2889 Column_2890 Column_2891 Column_2892 Column_2893 Column_2894 Column_2895 Column_2896 Column_2897 Column_2898 Column_2899 Column_2900 Column_2901 Column_2902 Column_2903 Column_2904 Column_2905 Column_2906 Column_2907 Column_2908 Column_2909 Column_2910 Column_2911 Column_2912 Column_2913 Column_2914 Column_2915 Column_2916 Column_2917 Column_2918 Column_2919 Column_2920 Column_2921 Column_2922 Column_2923 Column_2924 Column_2925 Column_2926 Column_2927 Column_2928 Column_2929 Column_2930 Column_2931 Column_2932 Column_2933 Column_2934 Column_2935 Column_2936 Column_2937 Column_2938 Column_2939 Column_2940 Column_2941 Column_2942 Column_2943 Column_2944 Column_2945 Column_2946 Column_2947 Column_2948 Column_2949 Column_2950 Column_2951 Column_2952 Column_2953 Column_2954 Column_2955 Column_2956 Column_2957 Column_2958 Column_2959 Column_2960 Column_2961 Column_2962 Column_2963 Column_2964 Column_2965 Column_2966 Column_2967 Column_2968 Column_2969 Column_2970 Column_2971 Column_2972 Column_2973 Column_2974 Column_2975 Column_2976 Column_2977 Column_2978 Column_2979 Column_2980 Column_2981 Column_2982 Column_2983 Column_2984 Column_2985 Column_2986 Column_2987 Column_2988 Column_2989 Column_2990 Column_2991 Column_2992 Column_2993 Column_2994 Column_2995 Column_2996 Column_2997 Column_2998 Column_2999 Column_3000 Column_3001 Column_3002 Column_3003 Column_3004 Column_3005 Column_3006 Column_3007 Column_3008 Column_3009 Column_3010 Column_3011 Column_3012 Column_3013 Column_3014 Column_3015 Column_3016 Column_3017 Column_3018 Column_3019 Column_3020 Column_3021 Column_3022 Column_3023 Column_3024 Column_3025 Column_3026 Column_3027 Column_3028 Column_3029 Column_3030 Column_3031 Column_3032 Column_3033 Column_3034 Column_3035 Column_3036 Column_3037 Column_3038 Column_3039 Column_3040 Column_3041 Column_3042 Column_3043 Column_3044 Column_3045 Column_3046 Column_3047 Column_3048 Column_3049 Column_3050 Column_3051 Column_3052 Column_3053 Column_3054 Column_3055 Column_3056 Column_3057 Column_3058 Column_3059 Column_3060 Column_3061 Column_3062 Column_3063 Column_3064 Column_3065 Column_3066 Column_3067 Column_3068 Column_3069 Column_3070 Column_3071 Column_3072 Column_3073 Column_3074 Column_3075 Column_3076 Column_3077 Column_3078 Column_3079 Column_3080 Column_3081 Column_3082 Column_3083 Column_3084 Column_3085 Column_3086 Column_3087 Column_3088 Column_3089 Column_3090 Column_3091 Column_3092 Column_3093 Column_3094 Column_3095 Column_3096 Column_3097 Column_3098 Column_3099 Column_3100 Column_3101 Column_3102 Column_3103 Column_3104 Column_3105 Column_3106 Column_3107 Column_3108 Column_3109 Column_3110 Column_3111 Column_3112 Column_3113 Column_3114 Column_3115 Column_3116 Column_3117 Column_3118 Column_3119 Column_3120 Column_3121 Column_3122 Column_3123 Column_3124 Column_3125 Column_3126 Column_3127 Column_3128 Column_3129 Column_3130 Column_3131 Column_3132 Column_3133 Column_3134 Column_3135 Column_3136 Column_3137 Column_3138 Column_3139 Column_3140 Column_3141 Column_3142 Column_3143 Column_3144 Column_3145 Column_3146 Column_3147 Column_3148 Column_3149 Column_3150 Column_3151 Column_3152 Column_3153 Column_3154 Column_3155 Column_3156 Column_3157 Column_3158 Column_3159 Column_3160 Column_3161 Column_3162 Column_3163 Column_3164 Column_3165 Column_3166 Column_3167 Column_3168 Column_3169 Column_3170 Column_3171 Column_3172 Column_3173 Column_3174 Column_3175 Column_3176 Column_3177 Column_3178 Column_3179 Column_3180 Column_3181 Column_3182 Column_3183 Column_3184 Column_3185 Column_3186 Column_3187 Column_3188 Column_3189 Column_3190 Column_3191 Column_3192 Column_3193 Column_3194 Column_3195 Column_3196 Column_3197 Column_3198 Column_3199 Column_3200 Column_3201 Column_3202 Column_3203 Column_3204 Column_3205 Column_3206 Column_3207 Column_3208 Column_3209 Column_3210 Column_3211 Column_3212 Column_3213 Column_3214 Column_3215 Column_3216 Column_3217 Column_3218 Column_3219 Column_3220 Column_3221 Column_3222 Column_3223 Column_3224 Column_3225 Column_3226 Column_3227 Column_3228 Column_3229 Column_3230 Column_3231 Column_3232 Column_3233 Column_3234 Column_3235 Column_3236 Column_3237 Column_3238 Column_3239 Column_3240 Column_3241 Column_3242 Column_3243 Column_3244 Column_3245 Column_3246 Column_3247 Column_3248 Column_3249 Column_3250 Column_3251 Column_3252 Column_3253 Column_3254 Column_3255 Column_3256 Column_3257 Column_3258 Column_3259 Column_3260 Column_3261 Column_3262 Column_3263 Column_3264 Column_3265 Column_3266 Column_3267 Column_3268 Column_3269 Column_3270 Column_3271 Column_3272 Column_3273 Column_3274 Column_3275 Column_3276 Column_3277 Column_3278 Column_3279 Column_3280 Column_3281 Column_3282 Column_3283 Column_3284 Column_3285 Column_3286 Column_3287 Column_3288 Column_3289 Column_3290 Column_3291 Column_3292 Column_3293 Column_3294 Column_3295 Column_3296 Column_3297 Column_3298 Column_3299 Column_3300 Column_3301 Column_3302 Column_3303 Column_3304 Column_3305 Column_3306 Column_3307 Column_3308 Column_3309 Column_3310 Column_3311 Column_3312 Column_3313 Column_3314 Column_3315 Column_3316 Column_3317 Column_3318 Column_3319 Column_3320 Column_3321 Column_3322 Column_3323 Column_3324 Column_3325 Column_3326 Column_3327 Column_3328 Column_3329 Column_3330 Column_3331 Column_3332 Column_3333 Column_3334 Column_3335 Column_3336 Column_3337 Column_3338 Column_3339 Column_3340 Column_3341 Column_3342 Column_3343 Column_3344 Column_3345 Column_3346 Column_3347 Column_3348 Column_3349 Column_3350 Column_3351 Column_3352 Column_3353 Column_3354 Column_3355 Column_3356 Column_3357 Column_3358 Column_3359 Column_3360 Column_3361 Column_3362 Column_3363 Column_3364 Column_3365 Column_3366 Column_3367 Column_3368 Column_3369 Column_3370 Column_3371 Column_3372 Column_3373 Column_3374 Column_3375 Column_3376 Column_3377 Column_3378 Column_3379 Column_3380 Column_3381 Column_3382 Column_3383 Column_3384 Column_3385 Column_3386 Column_3387 Column_3388 Column_3389 Column_3390 Column_3391 Column_3392 Column_3393 Column_3394 Column_3395 Column_3396 Column_3397 Column_3398 Column_3399 Column_3400 Column_3401 Column_3402 Column_3403 Column_3404 Column_3405 Column_3406 Column_3407 Column_3408 Column_3409 Column_3410 Column_3411 Column_3412 Column_3413 Column_3414 Column_3415 Column_3416 Column_3417 Column_3418 Column_3419 Column_3420 Column_3421 Column_3422 Column_3423 Column_3424 Column_3425 Column_3426 Column_3427 Column_3428 Column_3429 Column_3430 Column_3431 Column_3432 Column_3433 Column_3434 Column_3435 Column_3436 Column_3437 Column_3438 Column_3439 Column_3440 Column_3441 Column_3442 Column_3443 Column_3444 Column_3445 Column_3446 Column_3447 Column_3448 Column_3449 Column_3450 Column_3451 Column_3452 Column_3453 Column_3454 Column_3455 Column_3456 Column_3457 Column_3458 Column_3459 Column_3460 Column_3461 Column_3462 Column_3463 Column_3464 Column_3465 Column_3466 Column_3467 Column_3468 Column_3469 Column_3470 Column_3471 Column_3472 Column_3473 Column_3474 Column_3475 Column_3476 Column_3477 Column_3478 Column_3479 Column_3480 Column_3481 Column_3482 Column_3483 Column_3484 Column_3485 Column_3486 Column_3487 Column_3488 Column_3489 Column_3490 Column_3491 Column_3492 Column_3493 Column_3494 Column_3495 Column_3496 Column_3497 Column_3498 Column_3499 Column_3500 Column_3501 Column_3502 Column_3503 Column_3504 Column_3505 Column_3506 Column_3507 Column_3508 Column_3509 Column_3510 Column_3511 Column_3512 Column_3513 Column_3514 Column_3515 Column_3516 Column_3517 Column_3518 Column_3519 Column_3520 Column_3521 Column_3522 Column_3523 Column_3524 Column_3525 Column_3526 Column_3527 Column_3528 Column_3529 Column_3530 Column_3531 Column_3532 Column_3533 Column_3534 Column_3535 Column_3536 Column_3537 Column_3538 Column_3539 Column_3540 Column_3541 Column_3542 Column_3543 Column_3544 Column_3545 Column_3546 Column_3547 Column_3548 Column_3549 Column_3550 Column_3551 Column_3552 Column_3553 Column_3554 Column_3555 Column_3556 Column_3557 Column_3558 Column_3559 Column_3560 Column_3561 Column_3562 Column_3563 Column_3564 Column_3565 Column_3566 Column_3567 Column_3568 Column_3569 Column_3570 Column_3571 Column_3572 Column_3573 Column_3574 Column_3575 Column_3576 Column_3577 Column_3578 Column_3579 Column_3580 Column_3581 Column_3582 Column_3583 Column_3584 Column_3585 Column_3586 Column_3587 Column_3588 Column_3589 Column_3590 Column_3591 Column_3592 Column_3593 Column_3594 Column_3595 Column_3596 Column_3597 Column_3598 Column_3599 Column_3600 Column_3601 Column_3602 Column_3603 Column_3604 Column_3605 Column_3606 Column_3607 Column_3608 Column_3609 Column_3610 Column_3611 Column_3612 Column_3613 Column_3614 Column_3615 Column_3616 Column_3617 Column_3618 Column_3619 Column_3620 Column_3621 Column_3622 Column_3623 Column_3624 Column_3625 Column_3626 Column_3627 Column_3628 Column_3629 Column_3630 Column_3631 Column_3632 Column_3633 Column_3634 Column_3635 Column_3636 Column_3637 Column_3638 Column_3639 Column_3640 Column_3641 Column_3642 Column_3643 Column_3644 Column_3645 Column_3646 Column_3647 Column_3648 Column_3649 Column_3650 Column_3651 Column_3652 Column_3653 Column_3654 Column_3655 Column_3656 Column_3657 Column_3658 Column_3659 Column_3660 Column_3661 Column_3662 Column_3663 Column_3664 Column_3665 Column_3666 Column_3667 Column_3668 Column_3669 Column_3670 Column_3671 Column_3672 Column_3673 Column_3674 Column_3675 Column_3676 Column_3677 Column_3678 Column_3679 Column_3680 Column_3681 Column_3682 Column_3683 Column_3684 Column_3685 Column_3686 Column_3687 Column_3688 Column_3689 Column_3690 Column_3691 Column_3692 Column_3693 Column_3694 Column_3695 Column_3696 Column_3697 Column_3698 Column_3699 Column_3700 Column_3701 Column_3702 Column_3703 Column_3704 Column_3705 Column_3706 Column_3707 Column_3708 Column_3709 Column_3710 Column_3711 Column_3712 Column_3713 Column_3714 Column_3715 Column_3716 Column_3717 Column_3718 Column_3719 Column_3720 Column_3721 Column_3722 Column_3723 Column_3724 Column_3725 Column_3726 Column_3727 Column_3728 Column_3729 Column_3730 Column_3731 Column_3732 Column_3733 Column_3734 Column_3735 Column_3736 Column_3737 Column_3738 Column_3739 Column_3740 Column_3741 Column_3742 Column_3743 Column_3744 Column_3745 Column_3746 Column_3747 Column_3748 Column_3749 Column_3750 Column_3751 Column_3752 Column_3753 Column_3754 Column_3755 Column_3756 Column_3757 Column_3758 Column_3759 Column_3760 Column_3761 Column_3762 Column_3763 Column_3764 Column_3765 Column_3766 Column_3767 Column_3768 Column_3769 Column_3770 Column_3771 Column_3772 Column_3773 Column_3774 Column_3775 Column_3776 Column_3777 Column_3778 Column_3779 Column_3780 Column_3781 Column_3782 Column_3783 Column_3784 Column_3785 Column_3786 Column_3787 Column_3788 Column_3789 Column_3790 Column_3791 Column_3792 Column_3793 Column_3794 Column_3795 Column_3796 Column_3797 Column_3798 Column_3799 Column_3800 Column_3801 Column_3802 Column_3803 Column_3804 Column_3805 Column_3806 Column_3807 Column_3808 Column_3809 Column_3810 Column_3811 Column_3812 Column_3813 Column_3814 Column_3815 Column_3816 Column_3817 Column_3818 Column_3819 Column_3820 Column_3821 Column_3822 Column_3823 Column_3824 Column_3825 Column_3826 Column_3827 Column_3828 Column_3829 Column_3830 Column_3831 Column_3832 Column_3833 Column_3834 Column_3835 Column_3836 Column_3837 Column_3838 Column_3839 Column_3840 Column_3841 Column_3842 Column_3843 Column_3844 Column_3845 Column_3846 Column_3847 Column_3848 Column_3849 Column_3850 Column_3851 Column_3852 Column_3853 Column_3854 Column_3855 Column_3856 Column_3857 Column_3858 Column_3859 Column_3860 Column_3861 Column_3862 Column_3863 Column_3864 Column_3865 Column_3866 Column_3867 Column_3868 Column_3869 Column_3870 Column_3871 Column_3872 Column_3873 Column_3874 Column_3875 Column_3876 Column_3877 Column_3878 Column_3879 Column_3880 Column_3881 Column_3882 Column_3883 Column_3884 Column_3885 Column_3886 Column_3887 Column_3888 Column_3889 Column_3890 Column_3891 Column_3892 Column_3893 Column_3894 Column_3895 Column_3896 Column_3897 Column_3898 Column_3899 Column_3900 Column_3901 Column_3902 Column_3903 Column_3904 Column_3905 Column_3906 Column_3907 Column_3908 Column_3909 Column_3910 Column_3911 Column_3912 Column_3913 Column_3914 Column_3915 Column_3916 Column_3917 Column_3918 Column_3919 Column_3920 Column_3921 Column_3922 Column_3923 Column_3924 Column_3925 Column_3926 Column_3927 Column_3928 Column_3929 Column_3930 Column_3931 Column_3932 Column_3933 Column_3934 Column_3935 Column_3936 Column_3937 Column_3938 Column_3939 Column_3940 Column_3941 Column_3942 Column_3943 Column_3944 Column_3945 Column_3946 Column_3947 Column_3948 Column_3949 Column_3950 Column_3951 Column_3952 Column_3953 Column_3954 Column_3955 Column_3956 Column_3957 Column_3958 Column_3959 Column_3960 Column_3961 Column_3962 Column_3963 Column_3964 Column_3965 Column_3966 Column_3967 Column_3968 Column_3969 Column_3970 Column_3971 Column_3972 Column_3973 Column_3974 Column_3975 Column_3976 Column_3977 Column_3978 Column_3979 Column_3980 Column_3981 Column_3982 Column_3983 Column_3984 Column_3985 Column_3986 Column_3987 Column_3988 Column_3989 Column_3990 Column_3991 Column_3992 Column_3993 Column_3994 Column_3995 Column_3996 Column_3997 Column_3998 Column_3999 Column_4000 Column_4001 Column_4002 Column_4003 Column_4004 Column_4005 Column_4006 Column_4007 Column_4008 Column_4009 Column_4010 Column_4011 Column_4012 Column_4013 Column_4014 Column_4015 Column_4016 Column_4017 Column_4018 Column_4019 Column_4020 Column_4021 Column_4022 Column_4023 Column_4024 Column_4025 Column_4026 Column_4027 Column_4028 Column_4029 Column_4030 Column_4031 Column_4032 Column_4033 Column_4034 Column_4035 Column_4036 Column_4037 Column_4038 Column_4039 Column_4040 Column_4041 Column_4042 Column_4043 Column_4044 Column_4045 Column_4046 Column_4047 Column_4048 Column_4049 Column_4050 Column_4051 Column_4052 Column_4053 Column_4054 Column_4055 Column_4056 Column_4057 Column_4058 Column_4059 Column_4060 Column_4061 Column_4062 Column_4063 Column_4064 Column_4065 Column_4066 Column_4067 Column_4068 Column_4069 Column_4070 Column_4071 Column_4072 Column_4073 Column_4074 Column_4075 Column_4076 Column_4077 Column_4078 Column_4079 Column_4080 Column_4081 Column_4082 Column_4083 Column_4084 Column_4085 Column_4086 Column_4087 Column_4088 Column_4089 Column_4090 Column_4091 Column_4092 Column_4093 Column_4094 Column_4095
feature_infos=[-6.0148224830627441:4.3664593696594238] [-9.0209369659423828:3.0356628894805908] [-4.4312453269958496:4.693939208984375] [-11.375968933105469:-0.095700621604919434] [-9.4794282913208008:3.6050717830657959] [-6.6511712074279785:3.360863208770752] [-11.884366035461426:-0.077920332551002502] [-8.2075462341308594:1.7356276512145996] [-7.6438827514648438:7.0652580261230469] [-4.2951436042785645:4.6126928329467773] [-4.1424603462219238:2.6936635971069336] [-10.201478004455566:4.827662467956543] [-11.756619453430176:-0.074839703738689423] [-11.891386985778809:3.1505751609802246] [-7.3390994071960449:6.9175152778625488] [-13.770256042480469:2.8537659645080566] [-4.0333800315856934:5.113213062286377] [-7.090306282043457:5.7480411529541016] [-7.1727590560913086:5.1120147705078125] [-6.0720667839050293:9.5340204238891602] [-11.757051467895508:1.6499435901641846] [-7.856846809387207:4.242650032043457] [-9.3641471862792969:5.5594768524169922] [-3.1322228908538818:4.2232232093811035] [-1.7385644912719727:18.457426071166992] [-2.6068961620330811:6.0100536346435547] [-5.6203274726867676:0.56278336048126221] [-11.740114212036133:-0.072610832750797272] [-9.6671524047851562:2.5962255001068115] [-5.862452507019043:3.1130428314208984] [-1.0454119443893433:16.164970397949219] [-9.6615123748779297:4.6576776504516602] [-12.89732551574707:3.3312642574310303] [-12.973700523376465:2.6040499210357666] [-9.7419729232788086:1.0119683742523193] [-12.433981895446777:1.2362171411514282] [-6.6906914710998535:3.7390034198760986] [-4.5291709899902344:5.7933998107910156] [-6.7798900604248047:2.4086568355560303] [-2.0250401496887207:10.383610725402832] [-9.7834053039550781:3.0283756256103516] [-6.7403550148010254:2.0258450508117676] [-11.795587539672852:1.4067070484161377] [-13.898931503295898:0.65075153112411499] [-15.087531089782715:-0.056961912661790848] [-6.8381655182747636e-07:-1.9167499587524617e-08] [-10.279823303222656:3.7622222900390625] [-8.4081497192382812:2.0965194702148438] [-11.12367057800293:1.3073750734329224] [-10.851499557495117:3.3403153419494629] [-8.1060142517089844:5.3970212936401367] [-6.6616406440734863:3.4041221141815186] [-6.0198869705200195:2.8372867107391357] [-8.4618062973022461:4.3910555839538574] [-5.2670717239379883:3.4028072357177734] [-1.5939657688140869:11.416824340820312] [-15.750279426574707:0.76596230268478394] [-1.0014013014369993e-06:-1.8783055111271096e-08] [-7.9795970916748047:15.775547027587891] [-7.7761125564575195:2.2566697597503662] [-8.9490575790405273:1.0963336229324341] [-7.6613569259643555:5.9515228271484375] [-10.436084747314453:3.1010992527008057] [-5.6196770668029785:5.6879739761352539] [-8.9182662963867188:0.61567604541778564] [-10.135248184204102:1.5689990520477295] [-5.4252500534057617:2.3284111022949219] [-10.784809112548828:0.95086658000946045] [-12.729963302612305:3.4264998435974121] [-16.353120803833008:-0.085058040916919708] [-14.898982048034668:0.03239237517118454] [-3.247668981552124:9.9307212829589844] [-6.7594509124755859:3.2176065444946289] [-9.0451993942260742:0.97320437431335449] [-11.753963470458984:-0.12713439762592316] [-12.927813529968262:3.8320839405059814] [-8.2209815979003906:3.3219249248504639] [-10.961795806884766:2.1377997398376465] [-5.7695905297805439e-07:-1.2000271887302461e-08] [-4.5419130325317383:0.70441561937332153] [-7.9971027374267578:1.6544231176376343] [-8.8166122436523438:-0.14174281060695648] [-7.7823824882507324:1.5537431240081787] [-4.0370950698852539:-0.091836422681808472] [-8.692601203918457:3.187542200088501] [-7.160395622253418:2.1291739940643311] [-10.302336692810059:-0.13873417675495148] [-11.942539215087891:-0.096244432032108307] [-8.9697933197021484:1.5218061208724976] [-5.9327363967895508:2.2784445285797119] [-9.3341703414916992:2.8861808776855469] [-13.296035766601562:3.1642956733703613] [-12.214879035949707:0.4890466034412384] [-2.5732815265655518:11.943378448486328] [-10.389904022216797:3.4802234172821045] [-8.073765754699707:1.4150216579437256] [-10.534889221191406:1.0752174854278564] [-10.337342262268066:8.2877836227416992] [-12.898115158081055:6.9462590217590332] [-9.5910978317260742:2.9233863353729248] [-11.116066932678223:6.2381186485290527] [-16.393072128295898:-0.10223810374736786] [-9.6625566482543945:-0.052258327603340149] [-10.95173168182373:3.2989773750305176] [-15.353733062744141:4.2513866424560547] [-17.139297485351562:-0.11919975280761719] [-1.791690468788147:11.150581359863281] [-8.1906461715698242:7.565220832824707] [-12.50698184967041:0.502949059009552] [-4.657160758972168:0.31595557928085327] [-3.7940278053283691:8.0572662353515625] [-17.241641998291016:-0.00040846038609743118] [-7.9480342864990234:3.1908888816833496] [-8.8081321716308594:3.6572015285491943] [-10.830342292785645:1.340587854385376] [-11.611112594604492:4.5632143020629883] [-10.598666191101074:-0.02624458447098732] [-2.2145700454711914:5.3571805953979492] [-6.8196053504943848:3.6039462089538574] [-4.3531131744384766:6.8051276206970215] [-18.915523529052734:-0.037254057824611664] [-9.9068708419799805:2.8606624603271484] [-5.9878377914428711:3.1017968654632568] [-6.7751145362854004:10.319690704345703] [-9.1673164367675781:0.37270736694335938] [-6.7404427528381348:5.8385834693908691] [-9.7393779754638672:1.3200039863586426] [-12.675968170166016:-0.11350982636213303] [-7.5578579902648926:1.4716048240661621] [-5.0706992149353027:8.0733432769775391] [-13.380449295043945:2.2519197463989258] [-10.05747127532959:2.7648055553436279] [-6.8629355430603027:3.997830867767334] [-6.7458353042602539:2.6905522346496582] [-12.361217498779297:-0.16685603559017181] [-6.4609622955322266:9.6189231872558594] [-8.4571104049682617:0.34109604358673096] [-6.8269362449645996:5.4415655136108398] [-5.3503389358520508:4.0032992362976074] [-9.459528923034668:4.4156556129455566] [-8.2612104415893555:4.4533109664916992] [-12.95222282409668:-0.1900629848241806] [-3.1726806163787842:8.0810985565185547] [-6.1884498596191406:9.2534751892089844] [-9.9307355880737305:3.5178422927856445] [-9.6631126403808594:2.4450626373291016] [-6.4899649620056152:4.9656586647033691] [-13.490544319152832:1.8928723335266113] [-14.469015121459961:-0.18030250072479248] [-6.9450922012329102:0.79682093858718872] [-7.1793584823608398:4.1655797958374023] [-3.8916060924530029:3.3291459083557129] [-9.7485408782958984:-0.12319136410951614] [-14.839173316955566:1.7035056352615356] [-7.5954813957214355:10.801737785339355] [-15.20149040222168:1.8441860675811768] [-2.9053685665130615:4.5856308937072754] [-8.2804422378540039:1.6401855945587158] [-2.7436826229095459:16.599153518676758] [-6.4770517349243164:3.5138680934906006] [-10.86159610748291:3.3320930004119873] [-7.2644553184509277:2.9966652393341064] [-10.370480537414551:3.408881664276123] [-5.9840397834777832:6.169590950012207] [-10.034074783325195:1.2400028705596924] [-8.4912872314453125:3.2277495861053467] [-9.0489444732666016:0.0075395926833152771] [-5.5328750610351562:5.8799099922180176] [-6.1475954055786133:5.9265651702880859] [-8.318328857421875:1.3324928283691406] [-4.4707279205322266:15.83662223815918] [-1.0053071975708008:16.872220993041992] [-11.904775619506836:3.4624824523925781] [-8.6263465881347656:3.9067091941833496] [-12.433385848999023:3.2462644577026367] [-9.607203483581543:3.4404397010803223] [-6.208198070526123:10.864653587341309] [-9.5973358154296875:3.4366703033447266] [-8.7889833450317383:5.5214471817016602] [-12.639444351196289:2.952343225479126] [-6.4238653182983398:0.72902113199234009] [-1.7907965183258057:11.098066329956055] [-11.604099273681641:2.8151388168334961] [-7.8186779022216797:3.9744548797607422] [-3.4544780254364014:11.373957633972168] [-8.3007678985595703:-0.12028695642948151] [-9.5078334808349609:1.8159083127975464] [-4.4758996963500977:1.3106851577758789] [-10.114248275756836:6.0950355529785156] [-6.8915696144104004:1.0964994430541992] [-3.4212465286254883:2.6403861045837402] [-2.7635326385498047:12.325860977172852] [-3.6258056163787842:2.9940459728240967] [-6.807898998260498:3.161386251449585] [-3.2703914642333984:3.7013411521911621] [-12.886249542236328:0.4392087459564209] [-9.1777229309082031:2.0641624927520752] [-17.057121276855469:-0.042996838688850403] [-11.993318557739258:3.5702958106994629] [-0.59627729654312134:12.172109603881836] [-7.8803215026855469:6.1590633392333984] [-9.4292535781860352:2.2670938968658447] [-9.8563957214355469:9.0737237930297852] [-5.7666692733764648:3.3768503665924072] [-12.170510292053223:-0.112326979637146] [-7.2268528938293457:4.914154052734375] [-6.9112634658813477:3.8012855052947998] [-4.6482458114624023:4.5440797805786133] [-7.5831513404846191:5.2499842643737793] [-8.7309961318969727:-0.0030303597450256348] [-10.891706466674805:2.4012479782104492] [-10.559755325317383:-0.10970453917980194] [-4.2485456466674805:3.7092766761779785] [-1.8180066347122192:10.292082786560059] [-3.9531035423278809:8.655888557434082] [-11.0640869140625:3.472583532333374] [-13.35616397857666:4.0970969200134277] [-10.244541168212891:3.6547317504882812] [-2.7844886779785156:4.0461478233337402] [-6.2278952598571777:3.9833407402038574] [-12.688434600830078:-0.10365135967731476] [-11.766894340515137:0.61011368036270142] [-0.047663815319538116:-0.0003197773767169565] [-7.8255572319030762:2.4059000015258789] [-10.087752342224121:1.6559163331985474] [-9.1652679443359375:9.5542774200439453] [-7.0858559608459473:0.092522874474525452] [-9.6524477005004883:1.4618818759918213] [-4.6056442260742188:4.2198710441589355] [-1.2396290302276611:11.516467094421387] [-8.4119243621826172:1.5310618877410889] [-8.1394739151000977:3.0582637786865234] [-10.033220291137695:5.4912986755371094] [-10.215483665466309:5.7580909729003906] [-15.240507125854492:-0.053725734353065491] [-5.2651996612548828:2.4924230575561523] [-8.1857471466064453:7.049898624420166] [-7.9247889518737793:6.9525113105773926] [-9.0592279434204102:4.9680509567260742] [-7.918670654296875:7.5879149436950684] [-6.4949207305908203:3.892284631729126] [-12.048501014709473:0.49302446842193604] [-7.7574691772460938:-0.091891713440418243] [-11.602437973022461:4.2296056747436523] [-3.4373130798339844:13.051528930664062] [-8.7006664276123047:3.0975484848022461] [-6.7505769729614258:5.7744178771972656] [-7.0489144325256348:3.6829121112823486] [-17.753101348876953:-0.12635946273803711] [-11.343721389770508:1.0658340454101562] [-11.626804351806641:2.1194405555725098] [-11.298025131225586:2.1509444713592529] [-7.520988941192627:1.7601104974746704] [-10.763078689575195:3.5984578132629395] [-5.2692198753356934:5.5826616287231445] [-10.826654434204102:5.5677828788757324] [-3.3882641792297363:9.7231044769287109] [-13.778875350952148:2.9996411800384521] [-6.0562658309936523:1.5898818969726562] [-8.961543083190918:1.088292121887207] [-11.268637657165527:-0.11952900886535645] [-8.059239387512207:7.1621971130371094] [-14.378790855407715:1.6090961694717407] [-11.204573631286621:2.368560791015625] [-8.4334506988525391:-0.087488457560539246] [-7.2069211006164551:7.0553913116455078] [-17.229875564575195:-0.039178397506475449] [-6.4260826110839844:2.7544164657592773] [-8.4471645355224609:2.599433422088623] [-8.9816608428955078:1.517975926399231] [-9.4755239486694336:1.3408715724945068] [-3.8162620067596436:4.9286317825317383] [-13.337971687316895:4.2632498741149902] [-9.9888973236083984:3.734501838684082] [-4.2443466186523438:6.8891167640686035] [-8.8686637878417969:2.9539616107940674] [-6.7516121864318848:1.5474234819412231] [-9.8082475662231445:-0.027478408068418503] [-12.362905502319336:1.8748066425323486] [-2.2287421226501465:6.6627964973449707] [-5.6925082206726074:8.3234434127807617] [-11.699713706970215:2.9543774127960205] [-10.705998420715332:-0.067280709743499756] [-10.293367385864258:4.9987640380859375] [-10.703611373901367:0.013954915106296539] [-5.4673538208007812:5.5630459785461426] [-10.079936027526855:3.4792811870574951] [-7.5205192565917969:2.1736791133880615] [-4.1786417961120605:10.608453750610352] [-10.468093872070312:1.5336323976516724] [-9.7415924072265625:2.6035041809082031] [-2.2980015277862549:16.459224700927734] [-12.99223518371582:-0.073351338505744934] [-3.5703463554382324:3.1663382053375244] [-10.184320449829102:6.0391602516174316] [-7.8762331008911133:1.8203518390655518] [-6.7054038047790527:1.8850375413894653] [-0.5301782488822937:11.235651969909668] [-7.9005622863769531:1.9275168180465698] [-6.8782525062561035:4.0691795349121094] [-9.7087297439575195:0.97245985269546509] [-3.0975565910339355:18.680267333984375] [-9.6253118515014648:1.3625658750534058] [-11.14610481262207:-0.059691689908504486] [-6.7965946197509766:4.8935575485229492] [-10.455760955810547:1.5887916088104248] [-9.0527271368046058e-07:-2.2003703747941472e-08] [-10.73581600189209:2.5176787376403809] [-8.3325843811035156:1.7190151214599609] [-5.6300320625305176:7.6862192153930664] [-8.9998273849487305:2.3543407917022705] [-7.1547188758850098:-0.082467496395111084] [-8.5303888320922852:3.0782556533813477] [-6.6864347457885742:0.90874195098876953] [-12.147502899169922:0.86753278970718384] [-12.254238128662109:2.0698270797729492] [-8.112945556640625:0.98787945508956909] [-4.2759113311767578:3.9282660484313965] [-8.6332416534423828:2.9080305099487305] [-7.3640956878662109:5.4888229370117188] [-6.88043212890625:-0.050728563219308853] [-5.9289760589599609:3.0495357513427734] [-7.3672118186950684:3.2727839946746826] [-1.0363160371780396:7.8273839950561523] [-5.5653743743896484:6.3825526237487793] [-8.1776199340820312:4.4119763374328613] [-6.1872129440307617:3.0743672847747803] [-6.1516046524047852:1.1740460395812988] [-11.845518112182617:1.2140297889709473] [-5.9555149078369141:0.40071272850036621] [-7.0979626798362006e-07:-1.9383650240456518e-08] [-6.5516910552978516:3.2012686729431152] [-13.676589965820312:4.5719366073608398] [-12.163106918334961:0.68548208475112915] [-4.5735197067260742:4.7618489265441895] [-9.5152416229248047:3.7207951545715332] [-8.6227226257324219:-0.083415061235427856] [-6.680938720703125:4.8646373748779297] [-13.149046897888184:1.0234348773956299] [-6.4993324279785156:2.24631667137146] [-9.4636049270629883:0.86324059963226318] [-1.8597812652587891:16.027629852294922] [-6.135899543762207:4.970893383026123] [-10.934479713439941:1.1444555521011353] [-8.2802658081054688:3.7287647724151611] [-6.4851484298706055:19.665216445922852] [-9.6033611297607422:-0.07550559937953949] [-9.6597366333007812:1.1859462261199951] [-6.0056653022766113:1.0207972526550293] [-9.0100803375244141:0.37581524252891541] [-12.614054679870605:-0.035447776317596436] [-11.162991523742676:-0.11055955290794373] [-9.8069543838500977:4.1100969314575195] [-6.7328853607177734:5.9315762519836426] [-9.1631679534912109:2.5668456554412842] [-10.374679565429688:4.3138103485107422] [-13.966079711914062:-0.075048349797725677] [-2.7889304161071777:4.7094526290893555] [-3.3670761585235596:7.4932327270507812] [-11.404911041259766:5.019010066986084] [-5.2425136566162109:4.359525203704834] [-9.6759319305419922:5.1888055801391602] [-15.734681129455566:3.0237317085266113] [-5.4647126197814941:5.4126214981079102] [-7.911590576171875:4.7589321136474609] [-7.6683966199198039e-07:-1.609858735207581e-08] [-7.2391362190246582:6.1905727386474609] [-9.9745969772338867:1.4223541021347046] [-8.7110433578491211:2.8397622108459473] [-10.209961891174316:0.25792694091796875] [-8.3486452102661133:-0.060153670608997345] [-5.0030899047851562:9.0446176528930664] [-11.015037536621094:0.023666637018322945] [-4.5694737434387207:4.0670890808105469] [-1.1551539897918701:14.625029563903809] [-6.0277843475341797:7.5618577003479004] [-11.45748233795166:2.6347041130065918] [-0.72341907024383545:14.864404678344727] [-1.1720819473266602:13.280185699462891] [-10.159878730773926:-0.04455731064081192] [-10.880734443664551:1.3186631202697754] [-11.865750312805176:0.18197508156299591] [-9.3297538757324219:2.5083889961242676] [-4.9205446243286133:7.8657011985778809] [-2.1459019184112549:11.312106132507324] [-9.9376955032348633:4.0514116287231445] [-9.0550699234008789:2.7925570011138916] [-12.496760368347168:-0.11722788214683533] [-10.620363235473633:1.9231172800064087] [-12.829183578491211:4.1208810806274414] [-11.332982063293457:5.422062873840332] [-11.783162117004395:-0.080992460250854492] [-7.4951300621032715:1.2493598461151123] [-9.4095973968505859:2.5515470504760742] [-7.4803643226623535:4.1684317588806152] [-6.3479442596435547:-0.067003428936004639] [-8.8370494842529297:3.8972115516662598] [-7.2432465553283691:4.293302059173584] [-10.105094909667969:2.6090414524078369] [-6.7295207977294922:2.7969365119934082] [-4.1390547752380371:6.771578311920166] [-9.0621299743652344:3.0066437721252441] [-1.8202364444732666:12.525053024291992] [-7.7381439208984375:4.3393869400024414] [-5.2465453147888184:2.2941403388977051] [-2.6716389656066895:6.2695622444152832] [-4.7964019775390625:6.2282571792602539] [-4.3744821548461914:10.119976997375488] [-14.206069946289062:1.6847419738769531] [-10.684429168701172:0.15041334927082062] [-8.6508197784423828:3.2944812774658203] [-16.480493545532227:-0.093547850847244263] [-6.6944713592529297:-0.10334327816963196] [-8.8944129943847656:2.0699880123138428] [-2.6737685203552246:10.947695732116699] [-11.647486686706543:4.4701919555664062] [-7.2095160484313965:8.284419059753418] [-9.4664878845214844:2.0742301940917969] [-2.0861697196960449:-0.10501200705766678] [-12.748522758483887:-0.1091131791472435] [-7.5503430366516113:7.9992556571960449] [-9.4547233581542969:3.3702709674835205] [-11.256600379943848:2.6979508399963379] [-7.640265941619873:1.420424222946167] [-10.091039657592773:3.3445239067077637] [-2.5505681037902832:9.7866802215576172] [-13.637042999267578:-0.098134547472000122] [-6.1793303489685059:3.4453847408294678] [-10.726853370666504:2.1101069450378418] [-10.982759475708008:2.2044243812561035] [-11.639101028442383:1.275803804397583] [-6.7132148742675781:6.3074431419372559] [-9.8778610229492188:3.6260201930999756] [-7.1780300140380859:2.3120756149291992] [-8.7731304168701172:3.7180109024047852] [-9.6524896621704102:1.1752562522888184] [-13.654777526855469:-0.059173643589019775] [-6.2689798596693436e-07:-1.5896986838015437e-08] [-6.0131740570068359:11.123619079589844] [-11.622026443481445:13.01002025604248] [-8.0839557647705078:2.3796923160552979] [-9.2633895874023438:-0.061966791749000549] [-1.8461649417877197:3.398587703704834] [-10.810918807983398:3.5376765727996826] [-4.5082816768626799e-07:-1.4686874827418706e-08] [-13.997333526611328:1.9173749685287476] [-11.467877388000488:0.033926006406545639] [-13.563772201538086:-0.12581019103527069] [-0.64323729276657104:9.1651840209960938] [-16.831855773925781:2.9861941337585449] [-3.0394384860992432:3.1642360687255859] [-2.895822286605835:12.059140205383301] [-10.201236724853516:2.8142242431640625] [-7.057951734168455e-07:-1.8489425102075074e-08] [-5.7642097473144531:2.4632658958435059] [-9.7949237823486328:1.4319019317626953] [-11.843166351318359:-0.097253963351249695] [-4.7016358375549316:2.5397393703460693] [-7.8951292037963867:-0.0048782946541905403] [-1.9915783405303955:9.1308116912841797] [-11.488700866699219:-0.065518595278263092] [-3.7202901840209961:9.5219717025756836] [-10.752138137817383:-0.095773264765739441] [-9.4928550720214844:0.23999112844467163] [-10.212723731994629:3.5893173217773438] [-8.2565650939941406:1.2243717908859253] [-7.4260482788085938:-0.07536228746175766] [-5.8790359497070312:5.3870859146118164] [-13.54704761505127:2.6438276767730713] [-11.842336654663086:4.6240768432617188] [-12.29643726348877:2.0895006656646729] [-6.4329409599304199:14.208599090576172] [-5.112729549407959:19.383636474609375] [-7.5928201675415039:0.66701436042785645] [-11.653022766113281:2.4813427925109863] [-10.121779441833496:2.7138874530792236] [-8.9232540130615234:5.0764541625976562] [-12.186982154846191:1.7247697114944458] [-8.4792575836181641:5.0819101333618164] [-11.216451644897461:1.3159303665161133] [-9.930811882019043:1.8842747211456299] [-11.857719421386719:-0.13731458783149719] [-8.8931846618652344:2.4414165019989014] [-3.2894701957702637:6.9369854927062988] [-4.2974481582641602:9.1085577011108398] [-1.3895387649536133:12.282862663269043] [-0.086546167731285095:17.965423583984375] [-2.4493458271026611:12.22661304473877] [-11.311136245727539:-0.062799327075481415] [-8.8799619674682617:1.4902660846710205] [-7.3455204963684082:1.8190090656280518] [-4.5654969215393066:1.2098344564437866] [-9.5301752090454102:3.8411211967468262] [-2.6561694145202637:16.337577819824219] [-8.9128475189208984:2.348442554473877] [-8.5865983963012695:4.2757167816162109] [-10.233493804931641:3.1665172576904297] [-4.7710075378417969:1.8998069763183594] [-8.1794137954711914:4.1532411575317383] [-4.9035563468933105:1.9942402839660645] [-5.4958252906799316:3.8099348545074463] [-4.7844767570495605:8.1278524398803711] [-5.4590373039245605:-0.0092782694846391678] [-7.8934144973754883:5.5609164237976074] [-8.5408077239990234:6.0911297798156738] [-4.013239860534668:9.0764942169189453] [-8.9239749908447266:-0.11839774996042252] [-1.092436671257019:8.0890645980834961] [-6.0147762298583984:2.5632753372192383] [-5.730712890625:3.391730785369873] [-1.8252789974212646:8.6668539047241211] [-11.114469528198242:-0.12685391306877136] [-12.565305709838867:1.2352261543273926] [-4.241154670715332:12.084868431091309] [-4.5799040794372559:0.79994487762451172] [-2.6836645603179932:12.241305351257324] [-9.146092414855957:1.1782687902450562] [-2.911482572555542:13.173336029052734] [-8.8452920913696289:0.47938668727874756] [-11.949689865112305:5.8815460205078125] [-9.8860273361206055:0.19679050147533417] [-8.9791164398193359:3.0757367610931396] [-8.1113309860229492:0.82822757959365845] [-3.5344877243041992:15.66685676574707] [-14.75687313079834:-0.1356748640537262] [-17.359561920166016:-0.051838047802448273] [-18.275442123413086:-0.08103296160697937] [-5.9198012351989746:2.5912129878997803] [-10.008603096008301:3.5233659744262695] [-10.572921752929688:3.3465869426727295] [-14.605785369873047:-0.11215627193450928] [-11.011116981506348:3.6805171966552734] [-9.2558746337890625:-0.14831210672855377] [-11.368888854980469:2.3238213062286377] [-13.003867149353027:4.7174291610717773] [-9.6895780563354492:2.4006593227386475] [-0.69694292545318604:12.19570255279541] [-9.9642543792724609:4.8482451438903809] [-18.629074096679688:-0.030431892722845078] [-6.625007152557373:4.584282398223877] [-10.824552536010742:2.9121761322021484] [-11.157449722290039:0.63410657644271851] [-11.146190643310547:-0.079483948647975922] [-9.8204584121704102:4.4821205139160156] [-9.3409385681152344:2.2475404739379883] [-8.2997093200683594:2.669973611831665] [-7.463618278503418:1.0279937982559204] [-5.7032771110534668:0.048493441194295883] [-7.2840137481689453:12.414831161499023] [-13.805337905883789:1.8106865882873535] [-14.299342155456543:5.7483439445495605] [-5.272806333778135e-07:-1.5231020000783246e-08] [-7.453582763671875:0.12000653892755508] [-2.7023665904998779:-0.10916122794151306] [-8.1394405364990234:2.1397218704223633] [-5.1636743545532227:3.6484980583190918] [-8.0521345138549805:5.7146649360656738] [-10.150799751281738:-0.077810749411582947] [-10.578597068786621:1.7154499292373657] [-8.949127197265625:-0.10364511609077454] [-14.314364433288574:3.7503817081451416] [-2.0358538627624512:4.1357288360595703] [-15.018573760986328:3.0468707084655762] [-14.29847240447998:0.51539069414138794] [-12.411206245422363:2.8306002616882324] [-16.422876358032227:-0.073346391320228577] [-10.404010772705078:-0.19579404592514038] [-10.861425399780273:3.4835395812988281] [-12.686616897583008:2.3912477493286133] [-7.1364960670471191:0.70256000757217407] [-5.2763242721557617:6.3808321952819824] [-6.5615448951721191:3.7725067138671875] [-8.251561164855957:3.0465939044952393] [-1.8397492170333862:14.817265510559082] [-8.7279500961303711:2.723031759262085] [-7.2537460327148438:3.203758716583252] [-11.630756378173828:3.7889876365661621] [-7.8700757026672363:8.2944698333740234] [-3.0052008628845215:7.2025890350341797] [-5.8651504516601562:7.6232242584228516] [-8.8533344268798828:3.8582918643951416] [-5.3945293426513672:1.7209469079971313] [-7.0952997207641602:4.8046393394470215] [-11.171989440917969:3.221776008605957] [-5.6227188110351562:8.459935188293457] [-4.2216291427612305:7.0646686553955078] [-8.9834623336791992:0.76411223411560059] [-10.249286651611328:0.98185116052627563] [-11.406280517578125:-0.13383057713508606] [-4.3312397003173828:9.8790836334228516] [-10.785634994506836:0.87618398666381836] [-4.3217077255249023:4.6259407997131348] [-9.7609920501708984:0.90352869033813477] [-0.49524739384651184:16.248207092285156] [-8.4356966018676758:9.543766975402832] [-8.6398277282714844:0.54641604423522949] [-5.6042041778564453:5.1844501495361328] [-8.3868541717529297:6.2359223365783691] [-13.387872695922852:2.8012080192565918] [-11.087210655212402:2.0738704204559326] [-6.6015625:1.4109699726104736] [-10.517716407775879:3.437730073928833] [-6.1870021820068359:4.9513897895812988] [-7.0586452238785569e-07:-2.2184831749427758e-08] [-13.829482078552246:2.9249100685119629] [-7.354712963104248:2.7670121192932129] [-8.3391046524047852:2.0491228103637695] [-15.449207305908203:2.1262197494506836] [-7.6044530868530273:4.8731937408447266] [-12.088503837585449:2.3573064804077148] [-10.358320236206055:-0.076807163655757904] [-12.868526458740234:3.9908900260925293] [-9.1283807754516602:3.0634963512420654] [-7.7440152168273926:3.0783934593200684] [-7.4728608131408691:5.7627935409545898] [-8.51483154296875:0.69202369451522827] [-5.6170535087585449:1.5153336524963379] [-12.42242431640625:1.0307401418685913] [-9.9310474395751953:4.0953359603881836] [-4.5323610305786133:4.5258369445800781] [-8.8589763641357422:0.73727476596832275] [-12.239348411560059:4.0879888534545898] [-11.234790802001953:-0.10655340552330017] [-11.480419158935547:3.5050737857818604] [-5.5487146377563477:1.0289252996444702] [-6.7230896949768066:1.9781261682510376] [-6.618412971496582:2.8901066780090332] [-7.728487491607666:1.3362990617752075] [-11.359029769897461:0.17112940549850464] [-12.538646697998047:-0.087753534317016602] [-5.9656190872192383:2.3705015182495117] [-4.8753209114074707:5.0567989349365234] [-5.4323439598083496:0.10154697299003601] [-8.4307413101196289:-0.07094033807516098] [-6.6815056800842285:2.0046193599700928] [-3.9033677577972412:6.2662801742553711] [-2.707768440246582:14.924149513244629] [-12.565228462219238:0.035379376262426376] [-11.593339920043945:1.9124009609222412] [-15.848110198974609:4.634340763092041] [-6.0809812545776367:0.48414602875709534] [-8.8793420791625977:-0.083175867795944214] [-13.169958114624023:-0.11286608874797821] [-5.4536123275756836:3.8885970115661621] [-7.6126275062561035:5.9625148773193359] [-5.4191069602966309:0.77486467361450195] [-10.898077011108398:7.9317917823791504] [-9.971160888671875:-0.20161548256874084] [-8.2654037475585938:-0.076000690460205078] [-10.927857398986816:0.2672274112701416] [-8.0409879684448242:1.6874423027038574] [-2.5294325351715088:16.140666961669922] [-3.8015542030334473:3.7360143661499023] [-11.327245712280273:2.4918301105499268] [-8.5054178237915039:4.2246279716491699] [-11.502212524414062:9.0111074447631836] [-3.7512955665588379:3.3700273036956787] [-7.8556289672851562:-0.050149030983448029] [-13.476645469665527:-0.094689346849918365] [-11.049921035766602:-0.070181496441364288] [-9.9742050170898438:0.56831067800521851] [-2.6315956115722656:16.529769897460938] [-8.5811300277709961:3.2756719589233398] [-5.5042295455932617:4.6656217575073242] [-6.5504837036132812:3.0048768520355225] [-7.8330287933349609:0.016250867396593094] [-1.7198960781097412:18.074054718017578] [-8.2381067276000977:4.6365647315979004] [-7.6312761306762695:6.2100939750671387] [-7.8636321632075123e-07:-2.2850803915730467e-08] [-16.447977066040039:4.144655704498291] [-8.202580451965332:1.7824100255966187] [-7.3112082481384277:3.1262691020965576] [-12.535908699035645:0.36908042430877686] [-8.9384737014770508:3.8074605464935303] [-7.9713501930236816:3.8802957534790039] [-7.1578879356384277:10.69092845916748] [-9.6525096893310547:-0.072995565831661224] [-6.9939303398132324:3.9301226139068604] [-4.7427902221679688:3.7377681732177734] [-11.248039245605469:1.1273317337036133] [-7.9825310707092285:4.7211713790893555] [-4.75518798828125:1.9577524662017822] [-4.1867218017578125:7.001434326171875] [-14.319833755493164:-0.047761388123035431] [-8.7708978652954102:6.169222354888916] [-6.3274941444396973:7.4021353721618652] [-7.4712796211242676:1.5922540426254272] [-4.142636775970459:8.7538614273071289] [-9.1273288726806641:-0.076820991933345795] [-13.401736259460449:3.8899309635162354] [-3.9809117317199707:7.2921218872070312] [-5.0234055519104004:2.1185562610626221] [-8.6418962478637695:-0.148934006690979] [-3.9077534675598145:10.274272918701172] [-14.298450469970703:2.7344512939453125] [-7.2365550994873047:4.5077576637268066] [-10.275177001953125:-0.065582193434238434] [-10.502764701843262:4.8495702743530273] [-4.4216585159301758:13.55586051940918] [-15.465571403503418:1.6968990564346313] [-10.830060958862305:2.3547732830047607] [-10.387992858886719:1.101448655128479] [-9.8153114318847656:5.4126911163330078] [-2.606525182723999:0.83702230453491211] [-5.3988218307495117:16.258066177368164] [-5.0963454246520996:6.4817137718200684] [-12.896681785583496:2.4332659244537354] [-4.7511482238769531:15.948822021484375] [-4.3405923843383789:1.1474096775054932] [-6.8635730743408203:4.1579551696777344] [-6.8497500419616699:1.2569348812103271] [-11.253952980041504:-0.10102576017379761] [-4.8825349807739258:4.7432875633239746] [-10.294257164001465:2.6357049942016602] [-8.3406267166137695:2.3828179836273193] [-12.342046737670898:5.0609126091003418] [-11.70389461517334:2.5447559356689453] [-4.8827419281005859:0.079642869532108307] [-8.9802570343017578:1.0961781740188599] [-8.5675792694091797:4.2864432334899902] [-11.926857948303223:1.9625668525695801] [-9.4029531478881836:1.8308572769165039] [-8.7236185073852539:0.83683997392654419] [-7.5175614356994629:3.7968695163726807] [-0.40412110090255737:14.066604614257812] [-4.7969646453857422:1.9665218591690063] [-7.206397533416748:2.939885139465332] [-8.3025808334350586:-0.0093486346304416656] [-7.1093382835388184:1.2499508857727051] [-3.5383651256561279:7.4529256820678711] [-10.340850830078125:2.5120511054992676] [-7.6107387542724609:3.1514444351196289] [-7.5215349197387695:4.2389860153198242] [-9.0009803771972656:-0.090222634375095367] [-5.3249011039733887:1.7776906490325928] [-7.2350654602050781:9.5653190612792969] [-3.3269584178924561:12.051189422607422] [-3.8899309635162354:4.6231536865234375] [-9.5718498229980469:1.83213210105896] [-8.6079578399658203:4.7888751029968262] [-8.1353187561035156:-0.11245522648096085] [-2.9166293144226074:4.2528276443481445] [-6.2875094413757324:-0.092852413654327393] [-7.2275385856628418:1.275251030921936] [-5.316737174987793:1.2671101093292236] [-8.6907491683959961:1.2081422805786133] [-6.1218247413635254:0.67234832048416138] [-7.6053271293640137:5.3524236679077148] [-10.025190353393555:4.1628885269165039] [-13.143742561340332:4.0204648971557617] [-10.426156044006348:3.2236239910125732] [-2.8625822067260742:2.309274435043335] [-8.8331460952758789:1.8026872873306274] [-11.062524795532227:2.9523622989654541] [-7.8397750854492188:10.428292274475098] [-7.0266146659851074:-0.067767754197120667] [-2.2931993007659912:8.7017326354980469] [-4.0981636047363281:12.052632331848145] [-9.0726375579833984:2.4462356567382812] [-8.9576263427734375:1.550926685333252] [-14.892870903015137:-0.05755157396197319] [-7.8380255699157715:6.8877391815185547] [-4.9503726959228516:8.7137432098388672] [-8.8941335678100586:3.3482916355133057] [-14.772947311401367:-0.1618465781211853] [-9.9990940093994141:1.6522784233093262] [-5.4706568717956543:8.6230983734130859] [-1.7939499616622925:4.4609394073486328] [-9.2080154418945312:4.6577773094177246] [-4.8679060935974121:2.7341420650482178] [-8.4668073654174805:3.1883587837219238] [-7.6440253257751465:5.5441069602966309] [-3.613666296005249:0.70449644327163696] [-14.91773796081543:-0.088996611535549164] [-7.3832368850708008:0.88265013694763184] [-10.928842544555664:1.1299458742141724] [-8.9781007766723633:3.5470139980316162] [-2.9483671188354492:11.267364501953125] [-8.9700126647949219:3.4269969463348389] [-11.980721473693848:-0.049127038568258286] [-5.1497869491577148:4.336583137512207] [-1.6731637716293335:14.597259521484375] [-5.4900236129760742:-0.068211905658245087] [-2.6404175758361816:5.567995548248291] [-8.7047615051269531:5.1156725883483887] [-5.2694921493530273:4.2180991172790527] [-4.7524147033691406:3.4305720329284668] [-2.4504413604736328:15.26521110534668] [-3.8059086799621582:9.370701789855957] [-1.5749452114105225:8.7126865386962891] [-10.208101272583008:-0.13176456093788147] [-0.94886177778244019:-0.020962435752153397] [-7.1181588172912598:3.9436776638031006] [-6.8290181159973145:2.3640594482421875] [-8.253173828125:-0.023124214261770248] [-6.4861006736755371:2.4115214347839355] [-9.0198335647583008:-0.16048869490623474] [-11.029847145080566:-0.077177815139293671] [-7.4484233856201172:6.371739387512207] [-16.713100433349609:0.80257397890090942] [-8.7067317962646484:3.297335147857666] [-7.9294910430908203:0.10942543298006058] [-9.2522172927856445:2.2465240955352783] [-7.8702554702758789:5.2555975914001465] [-15.110441207885742:0.091519810259342194] [-6.1211972236633301:5.1132864952087402] [-7.0432500839233398:5.2751593589782715] [-7.8371829986572266:0.044472448527812958] [-7.7528347969055176:3.010063648223877] [-5.99462890625:2.0904262065887451] [-17.615339279174805:3.1920156478881836] [-11.760337829589844:5.5526561737060547] [-10.595614433288574:-0.096888191998004913] [-6.001554012298584:8.0984039306640625] [-5.9284343719482422:0.20079490542411804] [-6.1436944007873535:0.80642712116241455] [-0.81490087509155273:11.439407348632812] [-8.4741897583007812:3.5503931045532227] [-9.5188846588134766:2.1588888168334961] [-3.9621171951293945:4.4797959327697754] [-16.689022064208984:-0.050224024802446365] [-4.432438850402832:6.2007274627685547] [-8.1885547637939453:3.6233599185943604] [-3.1615946292877197:7.6730456352233887] [-10.843711853027344:3.3164041042327881] [-3.6550192832946777:7.0087146759033203] [-11.03902530670166:0.10570831596851349] [-1.9165152311325073:5.8221769332885742] [-6.5015420913696289:4.2868270874023438] [-9.5251932144165039:2.570317268371582] [-6.2996139526367188:3.7811181545257568] [-9.352931022644043:-0.11818167567253113] [-8.3043842315673828:1.6460533142089844] [-8.7780122756958008:1.3329898118972778] [-9.4755859375:1.7473831176757812] [-10.585734367370605:4.3257060050964355] [-10.514707565307617:6.5922775268554688] [-12.793399810791016:4.2263054847717285] [-2.4615128040313721:12.568693161010742] [-5.5917301177978516:4.2602200508117676] [-4.1055278778076172:10.67044734954834] [-3.4194076061248779:3.7402384281158447] [-13.282426834106445:3.0220246315002441] [-5.3682198524475098:3.5971472263336182] [-5.2733125686645508:10.540074348449707] [-10.296239852905273:2.4257612228393555] [-5.0408048629760742:11.791882514953613] [-6.7164196968078613:0.37391418218612671] [-10.369576454162598:-0.084315851330757141] [-2.5995602607727051:5.9074702262878418] [-10.240359306335449:3.8447260856628418] [-3.1673765182495117:3.971921443939209] [-5.742805004119873:3.1814935207366943] [-6.9463086128234863:-0.14453297853469849] [-0.88654643297195435:9.2198648452758789] [-9.3779048919677734:2.0641005039215088] [-9.076873779296875:3.9587109088897705] [-8.3423852920532227:-0.11865061521530151] [-9.2090673446655273:4.9611105918884277] [-13.612340927124023:3.5971603393554688] [-2.2422170639038086:13.07634162902832] [-13.113057136535645:1.9072003364562988] [-2.9631526470184326:7.3093934059143066] [-8.4435491561889648:7.7321019172668457] [-2.9394772052764893:5.625767707824707] [-11.006197929382324:2.2712457180023193] [-4.8066353797912598:4.8558058738708496] [-4.6936359405517578:4.0629353523254395] [-9.7357082366943359:2.1462767124176025] [-4.3034415245056152:3.9802341461181641] [-5.7196817398071289:1.0624618530273438] [-8.8387184143066406:4.8469600677490234] [-8.3669404983520508:2.9363768100738525] [-11.162550926208496:2.2694270610809326] [-7.4139590263366699:9.8048305511474609] [-7.4679965972900391:4.2285327911376953] [-8.4526586532592773:5.1896963119506836] [-9.2589635848999023:3.881397008895874] [-7.0682282447814941:3.0016553401947021] [-12.251588821411133:-0.10349337756633759] [-2.2942287921905518:16.620193481445312] [-12.064120292663574:0.26355594396591187] [-8.8136196136474609:0.89817136526107788] [-9.5119638442993164:4.0383973121643066] [-8.7972869873046875:0.746684730052948] [-4.4317717552185059:17.710962295532227] [-15.167547225952148:2.7479434013366699] [-2.7610032558441162:10.906184196472168] [-7.4280133247375488:9.5072364807128906] [-8.3530149459838867:7.4947347640991211] [-14.605134963989258:1.2157952785491943] [-7.1699638366699219:5.8333020210266113] [-8.8749761581420898:0.88901102542877197] [-11.270238876342773:1.8204758167266846] [-12.871986389160156:3.0252206325531006] [-6.3509616851806641:4.6097993850708008] [-3.2317538261413574:9.3808279037475586] [-9.7658376693725586:-0.028905943036079407] [-7.5581831932067871:2.294489860534668] [-6.5067944526672363:5.7750034332275391] [-9.1314477920532227:1.3218868970870972] [-6.1691408157348633:5.292271614074707] [-13.499393463134766:0.18467484414577484] [-9.4659357070922852:3.4684529304504395] [-8.7990455627441406:2.8401730060577393] [-4.4662027359008789:4.4871745109558105] [-6.1958136558532715:4.6256098747253418] [-3.0239596366882324:6.6559638977050781] [-14.464606285095215:2.2995808124542236] [-6.7489032745361328:7.1427593231201172] [-9.1716213226318359:9.9944095611572266] [-7.9149332046508789:1.1487734317779541] [-0.48661148548126221:8.3391399383544922] [-3.0279810428619385:3.4995999336242676] [-8.9444026947021484:2.9710001945495605] [-6.0756316184997559:1.6370712518692017] [-9.5663537979125977:1.8388822078704834] [-9.065791130065918:3.1325342655181885] [-13.866372108459473:0.51077950000762939] [-11.168393135070801:-0.088752135634422302] [-17.030899047851562:0.0025978349149227142] [-6.9148697853088379:5.5724163055419922] [-7.5834860801696777:4.7755599021911621] [-11.909316062927246:1.5826888084411621] [-11.672719955444336:1.3105685710906982] [-6.1467123031616211:3.3309988975524902] [-3.3790981769561768:10.788042068481445] [-8.7627696990966797:-0.058828745037317276] [-12.303775787353516:2.241316556930542] [-10.121423721313477:-0.10047978162765503] [-3.9080817699432373:5.7995033264160156] [-12.313450813293457:-0.17215617001056671] [-14.879889488220215:1.8866829872131348] [-10.478827476501465:1.5217064619064331] [-8.6030349731445312:4.6184272766113281] [-13.69449520111084:0.075514659285545349] [-10.974149703979492:1.902690052986145] [-5.1380882263183594:1.6557220220565796] [-2.7999739646911621:11.692342758178711] [-7.4093751907348633:3.9403612613677979] [-10.88967227935791:-0.074052229523658752] [-8.5811061859130859:3.2090854644775391] [-11.566020965576172:-0.071061767637729645] [-9.1637353897094727:1.436975359916687] [-1.4417369365692139:10.523503303527832] [-9.9564914703369141:2.717294454574585] [-5.4622797966003418:14.761528015136719] [-7.8269286155700684:3.7391252517700195] [-9.1767292022705078:1.941311240196228] [-4.4153599739074707:5.3122544288635254] [-8.5301332473754883:3.326157808303833] [-8.0152673721313477:2.4095988273620605] [-10.743396759033203:4.2437310218811035] [-6.7916393280029297:1.2881982326507568] [-13.540706634521484:-0.15530838072299957] [-8.7393312454223633:2.800776481628418] [-8.0357341766357422:3.7975802421569824] [-7.0715537071228027:3.0693492889404297] [-2.8904364109039307:4.5236644744873047] [0.080223634839057922:21.461240768432617] [-4.8401484489440918:6.5197343826293945] [-4.7187943458557129:4.6973533630371094] [-8.9273529052734375:6.5081515312194824] [-1.7567906379699707:12.462560653686523] [-2.7142481803894043:8.4154481887817383] [-7.4998159408569336:3.4441862106323242] [-4.2478275299072266:3.3350884914398193] [-8.3587684631347656:0.70685791969299316] [-4.7240815162658691:0.86318373680114746] [-3.2231383323669434:12.372862815856934] [-9.3242092132568359:0.96015232801437378] [-4.204533576965332:4.6427879333496094] [-10.070560455322266:-0.1139691174030304] [-6.4355983734130859:2.9362831115722656] [-11.715180397033691:3.0267043113708496] [-9.475956916809082:-0.086419589817523956] [-5.317718505859375:2.6338350772857666] [-7.459449291229248:-0.067609816789627075] [-4.5371623039245605:5.9690556526184082] [-13.897148132324219:-0.11055348813533783] [-2.5112264156341553:7.3173117637634277] [-7.2748293876647949:1.5017138719558716] [-8.6595954895019531:3.1226496696472168] [-7.9122915267944336:5.1305298805236816] [-1.7541505098342896:15.254997253417969] [-13.014839172363281:4.2389984130859375] [-5.9050164222717285:5.0894665718078613] [-6.959507942199707:2.0347771644592285] [-5.2891596169502009e-07:-1.8236624654832667e-08] [-7.1509904861450195:-0.11528880894184113] [-8.3676939010620117:2.6277127265930176] [-6.4759845733642578:6.323005199432373] [-8.3606471434904961e-07:-2.3043719821203013e-08] [-6.0130777359008789:2.415226936340332] [-6.7483530044555664:3.1635942459106445] [-11.569952011108398:3.3729541301727295] [-3.6364955902099609:12.023605346679688] [-2.3377270698547363:7.2273807525634766] [-3.3802101612091064:9.8419837951660156] [-6.5475850105285645:1.7910470962524414] [-8.2893543243408203:4.1374244689941406] [-5.9503793716430664:2.7027938365936279] [-12.755634307861328:4.5333037376403809] [-4.8843073844909668:14.878318786621094] [-2.8187062740325928:2.8122568130493164] [-0.44702649116516113:16.802988052368164] [-12.386727333068848:0.35087564587593079] [-3.9334316253662109:13.759077072143555] [-9.8660879135131836:12.024422645568848] [-9.5977592468261719:1.6559891700744629] [-6.0727643966674805:1.7374417781829834] [-10.799447059631348:2.2466349601745605] [-9.11285400390625:3.6652202606201172] [-5.6654515266418457:-0.070954948663711548] [-6.945127010345459:-0.02921602874994278] [-5.6742105484008789:3.8472423553466797] [-13.54118537902832:-0.1496715247631073] [-13.884334564208984:0.36457493901252747] [-4.1032094955444336:2.2417240142822266] [-9.7885227203369141:1.4901001453399658] [-7.6347417831420898:-0.14768975973129272] [-11.015360832214355:2.5866930484771729] [-17.162540435791016:3.9024202823638916] [-1.670656681060791:9.0909395217895508] [-6.0404363466659561e-07:-2.0342115547578032e-08] [-3.1587555408477783:12.542749404907227] [-11.591999053955078:0.28437015414237976] [-8.9027929306030273:15.898362159729004] [-10.744925498962402:-0.076135165989398956] [-4.4489636421203613:10.504191398620605] [-12.10693359375:-0.14923940598964691] [-11.636306762695312:1.1196670532226562] [-6.608668327331543:1.9969761371612549] [-9.1952333450317383:1.4167102575302124] [-3.6991214752197266:8.6735687255859375] [-2.2129719257354736:5.9374833106994629] [-3.713151216506958:9.0692272186279297] [-3.1839206218719482:2.6226730346679688] [-9.6307134628295898:2.1992106437683105] [-14.78223991394043:-0.083409793674945831] [-11.370576858520508:-0.039820365607738495] [-10.197237968444824:6.9146661758422852] [-13.39396858215332:3.6835863590240479] [-6.018062777002342e-07:-1.4994455455052957e-08] [-5.0126819610595703:1.9077926874160767] [-9.7096157073974609:0.54326605796813965] [-12.865802764892578:2.3345425128936768] [-8.9794473648071289:4.2686238288879395] [-4.1266274452209473:12.133373260498047] [-9.6099185943603516:1.6843082904815674] [-4.7278556823730469:3.152745246887207] [-3.474186897277832:8.3194198608398438] [-8.7222976684570312:3.2834465503692627] [-9.0390510559082031:1.4654390811920166] [-10.543334007263184:2.1527349948883057] [-7.9372968673706055:1.2421085834503174] [-8.7372169494628906:1.8684912919998169] [-14.259296417236328:1.8942835330963135] [-7.8137765058272635e-07:-1.1825980195112606e-08] [-7.1983966827392578:7.4227561950683594] [-11.739996910095215:2.8160057067871094] [-3.4857945442199707:3.84946608543396] [-6.4607024192810059:3.6809778213500977] [-5.3703217506408691:6.6488795280456543] [-10.758983612060547:0.71236294507980347] [-7.2494215965270996:1.7708213329315186] [-13.85076904296875:-0.096537128090858459] [-9.4643020629882812:3.4213809967041016] [-8.160130500793457:3.7237544059753418] [-6.82196044921875:2.4003088474273682] [-8.8507890701293945:1.0851578712463379] [-1.5413098335266113:9.1479969024658203] [-8.9565839767456055:1.1013472080230713] [-2.1417236328125:17.561212539672852] [-8.0876359939575195:2.529409646987915] [-12.329957962036133:-0.10643493384122849] [-7.5979461669921875:8.8844394683837891] [-8.34564208984375:4.3384909629821777] [-7.6741371154785156:4.2392358779907227] [-2.1616988182067871:5.2681779861450195] [-5.1248326301574707:-0.070565566420555115] [-12.818296432495117:-0.097242169082164764] [-7.0433578491210938:1.3334407806396484] [-7.7744393348693848:3.4964003562927246] [-13.121896743774414:3.0630683898925781] [-10.735699653625488:-0.083853483200073242] [-3.124077320098877:8.4878854751586914] [-10.867749214172363:4.5708537101745605] [-9.17486572265625:7.5580072402954102] [-5.5599064826965332:4.5860247611999512] [-8.5522022247314453:2.5170292854309082] [-6.9819474220275879:2.0855646133422852] [-11.848554611206055:2.3217778205871582] [-4.0125250816345215:16.637208938598633] [-8.2808713912963867:-0.15803468227386475] [-4.0510697364807129:13.496929168701172] [-7.4101266860961914:12.87672233581543] [-10.624823570251465:-0.096715137362480164] [-13.912076950073242:-0.11938537657260895] [-7.36431884765625:4.1521868705749512] [-13.884422302246094:-0.096907831728458405] [-9.0286798477172852:3.1967825889587402] [-6.3169593811035156:10.284085273742676] [-5.5810551643371582:4.0820012092590332] [-10.195158958435059:2.0410969257354736] [-5.4578366279602051:5.8253235816955566] [-6.7106852531433105:3.9462249279022217] [-0.66817396879196167:9.1019954681396484] [-4.8719706535339355:3.4258863925933838] [-7.478975772857666:2.8489866256713867] [-1.7026952505111694:10.242366790771484] [-8.1520462036132812:13.907790184020996] [-5.4781723022460938:4.7195067405700684] [-8.0915184020996094:1.2050794363021851] [-3.1963908672332764:4.9147148132324219] [-4.4498453140258789:1.8024210929870605] [-1.264933705329895:8.9274635314941406] [-5.0232439041137695:3.3663425445556641] [-7.7369856834411621:4.3043103218078613] [-10.388127326965332:2.027224063873291] [-10.567569732666016:1.7425624132156372] [-6.2103562355041504:4.9101228713989258] [-9.1451129913330078:-0.10140855610370636] [-7.7749285697937012:1.3624148368835449] [-0.69226372241973877:8.9557504653930664] [-4.8204746246337891:0.0053034499287605286] [-7.7451367378234863:10.257726669311523] [-6.5855311959239771e-07:-1.6244735334680627e-08] [-7.2768149375915527:3.192528247833252] [-8.8711814880371094:11.482922554016113] [-7.1134471893310547:3.2065484523773193] [-13.095376014709473:3.0276825428009033] [-13.50045108795166:-0.096187569200992584] [-3.6715867519378662:7.4203681945800781] [-1.8697081804275513:13.614144325256348] [-9.8888788223266602:3.6096668243408203] [-11.22029972076416:0.24208986759185791] [-3.3303413391113281:11.660798072814941] [-1.8112609386444092:12.279927253723145] [-10.87568473815918:-0.085384897887706757] [-13.573546409606934:1.9549933671951294] [-13.593654632568359:3.7340073585510254] [-6.2701592445373535:6.8485727310180664] [-10.786352157592773:2.0929343700408936] [-6.0762424468994141:2.489004373550415] [-7.8824491500854492:2.641338586807251] [-6.9940924644470215:0.3664589524269104] [-4.3557124137878418:8.9958086013793945] [-13.56734561920166:4.2136735916137695] [-12.804977416992188:-0.15821546316146851] [-6.1162040765339043e-07:-2.2715269665241067e-08] [-3.3294596672058105:3.0563170909881592] [-11.124486923217773:4.373964786529541] [-13.949441909790039:-0.094093307852745056] [-8.4340000152587891:1.9037944078445435] [-5.2038021087646484:6.7189927101135254] [-11.801446914672852:4.3308520317077637] [-7.3446022952339263e-07:-1.9910144644086358e-08] [-12.750391960144043:0.16194367408752441] [-7.075035572052002:3.1228547096252441] [-0.85447514057159424:-0.039579298347234726] [-1.6067924499511719:7.5348978042602539] [-3.3144626617431641:4.3084945678710938] [-12.332232475280762:-0.12263967841863632] [-1.3264187574386597:7.0585999488830566] [-11.084770202636719:0.80069410800933838] [-6.0035514831542969:6.153078556060791] [-12.422436714172363:2.5968201160430908] [-3.7954678535461426:5.9158296585083008] [-8.6016721725463867:1.0922026634216309] [-8.4412803649902344:3.8298838138580322] [-8.0045604705810547:3.6284711360931396] [-11.418384552001953:4.353126049041748] [-7.1642951965332031:5.0332255363464355] [-12.823912620544434:1.5571755170822144] [-6.1815924644470215:9.4389400482177734] [-10.004983901977539:5.6959114074707031] [-7.6568360328674316:4.5395774841308594] [-7.3626370429992676:1.1139492988586426] [-10.265296936035156:2.7013344764709473] [-10.914602279663086:0.40164968371391296] [-5.1934165954589844:0.78747594356536865] [-4.7048053741455078:1.1771245002746582] [-4.2518625259399414:-0.026517663151025772] [-5.9916672706604004:4.1166987419128418] [-3.930593729019165:1.5353156328201294] [-10.195880889892578:2.3984932899475098] [-1.9837868213653564:11.572554588317871] [-7.9940690994262695:2.7286059856414795] [-11.367597579956055:-0.037246651947498322] [-2.5101315975189209:4.7047090530395508] [-9.3489618301391602:1.6589661836624146] [-12.557313919067383:-0.011503152549266815] [-6.4066261984407902e-07:-2.0745870799032673e-08] [-9.0626735687255859:12.640612602233887] [-8.0788373947143555:3.606781005859375] [-8.8210468292236328:1.873700737953186] [-5.2196512222290039:4.187807559967041] [-10.825637817382812:-0.1007225289940834] [-5.7171907424926758:4.0175137519836426] [-7.8984088897705078:-0.08251655101776123] [-6.1395683288574219:1.8043234348297119] [-15.670804023742676:-0.13476859033107758] [-9.0388298034667969:3.8935966491699219] [-7.8244218826293945:9.4596662521362305] [-14.337641716003418:4.6170711517333984] [-10.448173522949219:6.6262354850769043] [-3.9866347312927246:6.0188140869140625] [-2.6065707206726074:2.2645959854125977] [-8.2916183471679688:5.2907319068908691] [-9.4397087097167969:0.81562787294387817] [-9.5601224899291992:0.034669704735279083] [-4.7511053085327148:4.956244945526123] [-3.6178412437438965:14.52313232421875] [-10.344249725341797:0.071758411824703217] [-2.0761563777923584:9.2492341995239258] [-9.971710205078125:3.0132362842559814] [-4.3965239524841309:7.0201482772827148] [-7.5087261199951172:2.3597011566162109] [-5.9569268226623535:6.9276471138000488] [-9.2893505096435547:4.0853142738342285] [-8.3139524459838867:5.3279991149902344] [-7.8824062347412109:-0.11426770687103271] [-11.761302947998047:-0.17020979523658752] [-2.4705569744110107:13.191253662109375] [-4.0263967514038086:19.533847808837891] [-10.229016304016113:-0.11052004247903824] [-11.436256408691406:1.1330448389053345] [-9.5836868286132812:1.5317139625549316] [-11.131122589111328:-0.099374443292617798] [-7.0979247093200684:3.5496540069580078] [-9.1659908294677734:12.439430236816406] [-5.5002412796020508:0.41021266579627991] [-9.1343669891357422:5.7263550758361816] [-7.1827855110168457:0.55698853731155396] [-5.8841390609741211:2.5147135257720947] [-7.2958154678344727:5.887448787689209] [-9.799281120300293:3.0961575508117676] [-8.8019027709960938:4.3712139129638672] [-8.9791879653930664:2.2926383018493652] [-3.864666223526001:2.5963897705078125] [-9.0774097442626953:1.6283206939697266] [-9.7883014678955078:1.9438040256500244] [-9.9276666641235352:3.7301685810089111] [-8.8328952789306641:5.6991190910339355] [-7.4665646553039551:5.5324163436889648] [-9.2405538558959961:3.0964624881744385] [-10.37909984588623:-0.10015514492988586] [-16.587528228759766:-0.070301488041877747] [-2.9569811820983887:6.0529379844665527] 